,0,1,2,3,4,5,6,7,8,9,10,11,12,13,14,15,16,17,18,19,20,21,22,23,24,25,26,27,28,29,30,31,32,33,34,35,36,37,38,39,40,41,42,43,44,45,46,47,48,49,50,51,52,53,54,55,56,57,58,59,60,61,62,63,64,65,66,67,68,69,70,71,72,73,74,75,76,77,78,79,80,81,82,83,84,85,86,87,88,89,90,91,92,93,94,95,96,97,98,99,100,101,102,103,104,105,106,107,108,109,110,111,112,113,114,115,116,117,118,119,120,121,122,123,124,125,126,127,128,129,130,131,132,133,134,135,136,137,138,139,140,141,142,143,144,145,146,147,148,149,150,151,152,153,154,155,156,157,158,159,160,161,162,163,164,165,166,167,168,169,170,171,172,173,174,175,176,177,178,179,180,181,182,183,184,185,186,187,188,189,190,191,192,193,194,195,196,197,198,199,200,201,202,203,204,205,206,207,208,209,210,211,212,213,214,215,216,217,218,219,220,221,222,223,224,225,226,227,228,229,230,231,232,233,234,235,236,237,238,239,240,241,242,243,244,245,246,247,248,249,250,251,252,253,254,255,256,257,258,259,260,261,262,263,264,265,266,267,268,269,270,271,272,273,274,275,276,277,278,279,280,281,282,283,284,285,286,287,288,289,290,291,292,293,294,295,296,297,298,299,300,301,302,303,304,305,306,307,308,309,310,311,312,313,314,315,316,317,318,319,320,321,322,323,324,325,326,327,328,329,330,331,332,333,334,335,336,337,338,339,340,341,342,343,344,345,346,347,348,349,350,351,352,353,354,355,356,357,358,359,360,361,362,363,364,365,366,367,368,369,370,371,372,373,374,375,376,377,378,379,380,381,382,383,384,385,386,387,388,389,390,391,392,393,394,395,396,397,398,399,400,401,402,403,404,405,406,407,408,409,410,411,412,413,414,415,416,417,418,419,420,421,422,423,424,425,426,427,428,429,430,431,432,433,434,435,436,437,438,439,440,441,442,443,444,445,446,447,448,449,450,451,452,453,454,455,456,457,458,459,460,461,462,463,464,465,466,467,468,469,470,471,472,473,474,475,476,477,478,479,480,481,482,483,484,485,486,487,488,489,490,491,492,493,494,495,496,497,498,499,500,501,502,503,504,505,506,507,508,509,510,511
0,-0.021727448,-0.04183518,-0.017615745,0.036734324,-0.0094944,0.040762044,0.036970247,0.0039680153,-0.013036183,-0.019011848,-6.046492e-05,-0.02257559,-0.032128684,-0.036998346,-0.013823555,-0.018108087,0.0068935594,0.009293644,-0.018444609,-0.030550828,-0.02503059,0.035885226,0.028613126,0.022163764,-0.00541862,-0.0007166597,0.008041798,-0.025998957,0.037345253,0.022008577,-0.012605348,0.038654566,-0.0034429128,0.02517316,-0.007401782,-0.026239647,-0.034094196,-0.0025606845,0.027115732,-0.038825266,0.0337106,0.0135136545,-0.029712511,0.014779561,0.008685601,-0.040251076,-0.00809819,0.04298361,0.029848592,-0.034736384,-0.038912456,0.010142586,0.02044385,-0.020336302,-0.0072075007,-0.014064967,-0.021745235,-0.023944262,0.042058308,0.013424292,-0.015478556,0.0316968,0.0077229883,-0.0017157508,-0.0025305916,-0.022494046,0.0148954755,0.01025573,0.022154786,-0.026736159,-0.011267217,0.017564273,-0.038992535,-0.0019238561,0.018588942,-0.019442124,0.029339006,-0.04295559,-0.026681056,0.017393524,-0.0108949235,0.024502212,-0.031643726,0.031113124,-0.03083908,0.010171936,0.0407609,-0.016694482,-0.014443804,-0.04215599,-0.025426956,0.043463938,0.008054773,0.036647934,-0.009192959,0.031561762,0.044044293,-0.03229975,-0.012574444,0.0063594272,0.0391756,-0.0134987505,-0.013649251,0.04079806,-0.040601432,0.017092718,-0.037349068,-0.021609206,0.031090233,0.030312182,-0.031181023,0.009400011,0.028863678,-0.023386158,-0.009822117,-0.02996803,0.04342414,-0.040879376,-0.0004853473,-0.033971377,-0.008382339,0.021327306,-0.038784742,-0.01644415,-0.041678995,0.021543777,0.019787682,0.011126252,0.011135713,0.019761208,0.038243175,0.011594039,0.012967247,0.027650198,0.03401671,0.019004293,-0.010865753,0.024459792,-0.019859847,-0.0075769178,-0.021718007,-0.03898333,0.038631216,-0.0020529097,0.028637845,0.036937077,-0.009758576,0.03388619,-0.010308486,0.03491467,0.02369576,0.007906612,-0.007895659,0.018735422,-0.039049666,-0.010919679,-0.039574273,-0.0007176871,-0.025675323,0.015826862,-0.007968468,-0.0020940925,-0.039645813,0.013270836,0.02536998,0.013868062,0.022926653,-0.02973617,-0.0035172335,-0.015509829,-0.015838021,-0.0189957,-0.019071301,-0.04417428,0.0025523184,0.017788062,-0.0031785571,0.020371832,0.04112759,-0.03273362,0.012680011,-0.04098003,0.0040926696,-0.043542136,-0.0088209715,-0.034577154,0.038406167,-0.029762823,0.010184196,0.020353198,-0.019582821,0.011775566,-0.028363474,0.0061368076,0.034442663,-0.039560232,-0.007514277,-0.027420782,0.02523995,-0.0005453697,0.012836349,0.010593009,0.0298138,0.00592473,0.041076675,-0.010273937,0.03454508,-0.03451879,0.008427463,0.02935823,-0.016929088,0.03741361,-0.038117196,-0.029189195,-0.007479037,0.0031348458,-0.035609726,-0.035973445,-0.005154143,-0.034127172,0.011415895,0.016270438,-0.034879494,0.009055029,-0.0031682523,0.002902369,0.011258292,-0.01280445,0.026644541,-0.03441082,0.032238845,-0.024698326,0.00055080664,0.002068267,0.027287155,0.015605614,0.011662476,0.027440358,-0.0006343048,-0.018921206,0.026206678,0.037693508,-0.02016537,-0.034080327,-0.014115348,0.015016817,-0.026236597,-0.02730878,0.032899197,-0.04360824,-0.0061558946,-0.016241519,-0.009356569,-0.0098675145,-0.04225859,-0.02901536,0.025504902,-0.0068021114,0.013878946,0.04095884,-0.039587107,-0.04387432,0.02751253,-0.0038417957,-0.005429657,0.03765365,0.012337109,-0.025405888,-0.035778202,-0.009866061,0.036875993,0.02093829,0.016580418,-0.0021344533,0.0106001375,-0.020125309,0.009790776,0.043123417,-0.017400611,-0.003963284,-0.0348133,-0.008293857,-0.03516819,-0.0162308,-0.030055445,0.026111025,0.036622427,-0.03668561,0.010226575,-0.012539135,0.038695794,0.034171827,0.012896161,0.012618134,-0.035285126,0.025781317,-0.03958531,0.040381633,0.015596009,0.043281782,0.027377328,0.025467724,0.0075346553,0.029300705,-0.017456787,0.040884923,0.006827231,0.007144934,0.018483384,-0.029987419,-0.013439977,-0.034799,-0.0065677646,-0.016557362,0.008002733,0.008629456,-0.03930402,-0.0031714449,0.028441498,-0.029726794,-0.015647829,-0.016871573,0.026680361,0.027776016,0.01580974,-0.024696108,0.041302405,-0.01370684,-0.028776594,-0.029003954,-0.01039376,-0.016503077,-0.041406423,-0.022302436,0.001899864,0.041755114,-0.03181259,-0.013693042,0.02435895,0.003957252,-0.028706482,-0.015534163,-0.038869403,0.005254953,0.026180489,-0.033001263,0.0061945594,0.03787048,-0.0053325244,-0.0374638,0.021259112,-0.015661405,-0.02918182,0.010077875,0.0186009,-0.022507522,0.0013662586,-0.016843328,-0.032281913,0.029146595,0.03858109,0.00366195,-0.019876996,-0.020350711,-0.03402503,0.039594356,-0.0012085503,0.008659991,-0.003561219,0.003161261,0.008033205,0.001610684,0.019731404,-0.025833432,-0.009727293,0.032831904,-0.029890545,0.041463368,-0.02276515,0.002188296,0.013753496,0.02091196,0.019380143,-0.04098688,-0.04170141,-0.033772822,-0.029407488,-0.023048716,0.020528244,-0.025670934,-0.022494216,-0.012429232,0.013033849,0.010768631,-0.0034847225,0.01760175,-0.019369943,0.03759536,-0.02867328,-0.013295229,-0.014212112,-0.025395526,0.025295246,0.042460617,0.03672033,-0.028108334,0.013194208,-0.026744561,-0.016675364,0.034537893,0.021506656,-0.005112676,-0.04173843,0.022333367,0.008261093,-0.0022011034,0.023923183,0.025573306,-0.009563889,-0.020668408,0.016502135,0.0033457275,-0.03847607,0.033363156,-0.010121713,0.01386752,0.011552093,0.040690526,0.03254832,0.0053966194,-0.017143361,0.028219149,-0.029220205,-0.01305713,0.017816005,0.010900444,-0.037393022,0.028709374,-0.025632527,-0.0073182154,-0.010774467,-0.012204068,0.02374104,0.025393797,-0.013750535,0.032370087,-0.039539084,-0.04040192,0.01612708,0.017140491,-0.04219186,0.011586279,0.03663223,0.027519321,0.021668628,-0.008455769,-0.023189807,-0.040262572,0.022363428,-0.012571562,0.019186947,0.022169895,-0.002736853,0.02885112,0.026200762,-0.03721892,0.031181587,-0.043566935,-0.038483158,-0.03619801,-0.0036750208,-0.01199426,0.029694809,-0.01592203,0.03691444,-0.013965564,-0.020616753,0.006109465,-0.012646135,-0.026363755,-0.03681832,0.04198277,0.019619057,-0.03194066,0.018182809,-0.021705922,-0.008543261,0.038391557,0.03626651,0.00800679,0.015940687,0.008607039,-0.027410666,0.0151155405,-0.025988922,-0.030910555,0.016444867,-0.003242473,-0.037134275,-0.028898118,-0.028419262,-0.0021911936,-0.04233609,0.027092684,0.026283333,0.043282684,-0.029823588,-0.017108439,-0.009259088,0.03886615,-0.04071603,0.0033678282
1,-0.013847915,0.03376828,-0.007872135,0.023429006,-0.009987128,0.0090955375,-0.003804359,0.009739009,-0.042736694,0.030255768,0.02982833,-0.014507667,-0.017637586,-0.005493536,0.033282213,-0.028018456,-0.04264728,-0.03549118,-0.017148893,0.010831734,0.026062831,-0.015890326,-0.03670637,0.018220687,-0.02839626,-0.026114434,0.030834544,0.04193408,0.026232272,0.042518545,0.030676419,-0.012108447,-0.006615285,-0.008682704,0.018682566,0.002828143,0.038763694,0.029200384,0.0033392315,-0.03839753,0.018521922,-0.040809058,0.038690317,-0.018219866,-0.03847239,-0.0112928795,0.016577767,-0.01982331,0.010995365,-0.013058959,-0.022797246,0.044053387,-0.038296845,0.0041933586,0.03363724,0.02868899,-0.036399,-0.036608614,0.03104002,-0.035836026,-0.019846765,-0.009164837,0.03301499,-0.013397614,-0.02919988,0.032683462,-0.0065995483,-0.025073886,0.020383859,0.014348989,-0.03433172,-0.010533593,-0.014194158,0.030697899,0.024134127,0.0062787426,-0.04256377,0.031204978,-0.0028425257,-0.030309174,0.026739668,-0.006192178,-0.016714059,-0.0027034252,-0.040569138,0.011805844,-0.011032164,-0.041849475,-0.006568186,-0.023503942,0.01814977,-0.015963493,0.035040505,-0.0340131,0.021075716,-0.033763148,0.01944685,-0.0326032,-0.0061410484,0.029016767,-0.016897935,0.008786111,0.01850166,0.021963987,-0.01129437,-0.0053814887,-0.020211611,0.014052202,0.014389513,-0.032683864,0.02364446,0.010756007,0.007380224,0.015257112,0.0125241885,0.024957778,0.004845149,0.032127015,-0.036325637,0.0054446985,0.041240267,0.00036575034,-0.026209528,-0.015876891,0.01915276,0.018508425,-0.0057212026,0.026541814,-0.027338179,-0.024155017,0.008696328,0.03376628,0.042268958,0.02357063,0.013277547,-0.020127106,0.042268854,-0.029540109,-0.013750577,-0.01383623,0.012218924,0.021944225,0.040103026,-0.016790066,0.005050041,0.0024896776,0.016057065,0.000116241004,-0.01789473,0.03483169,-0.029254664,0.018705646,0.020697448,-0.0143109355,-0.03513337,0.02478636,-0.0347764,-0.00549862,0.038104564,0.008087153,-0.010959071,0.03562359,-0.007614376,0.023323212,0.0250451,-0.026460828,0.021947777,-0.042517688,0.043308295,-0.0051551494,0.034305427,-0.02892278,0.02360794,-0.034099713,-0.038394473,0.01297566,0.002497264,0.04331655,-0.023555173,-0.036054637,-0.017042309,0.013747765,-0.022607379,0.026750963,-0.010419623,-0.018736692,-0.01759339,-0.021348184,0.00057281257,-0.009972298,0.0043421946,0.017087301,0.01221431,0.02856118,-0.034714065,0.0106507195,-0.004198648,0.007853997,0.0037590351,-0.027979307,0.024026174,0.023356171,0.032809705,0.009701656,-0.035619333,-0.022817735,-0.020052586,0.030185493,-0.014484723,-0.007880349,0.021263532,0.023932476,0.01581402,-0.011546967,-0.025368435,-0.043701172,-0.032221083,0.02785394,0.0055027134,0.035684686,-0.04082397,0.040366955,-0.015416173,-0.039966907,0.043267895,0.037769075,0.035389528,0.00180241,0.02624536,-0.006570883,-0.015451925,0.0096948445,0.023869745,-0.010145436,-0.0028103518,-0.022563126,0.020496296,-0.030197036,0.042327106,-0.00037386362,-0.017773727,-0.029423822,0.02089076,0.016960677,0.0061552995,-0.0015359471,-0.021884056,-0.005833561,-0.008818143,0.004443758,0.0023234135,-0.019632123,0.0019622783,0.042514175,0.014404454,-0.008638881,0.03174145,-0.01397178,0.0164896,0.022832138,-0.011819641,-0.009558015,0.018190695,-0.030752622,-0.008623029,0.030322317,0.008447688,-0.034146875,0.01562097,-0.035621442,-0.021296619,0.036603134,-0.0053169355,-0.005115447,0.035322677,-0.0302242,0.031292707,0.0026024836,0.04204474,-0.02804682,0.0148458425,0.027992314,-0.004365581,0.039950028,-0.041325383,0.03696246,0.029006446,0.01023277,-0.016356755,0.01302679,-0.018267022,0.03419059,-0.025207592,-0.00046815138,-0.038366586,0.010819344,0.019471243,0.013746537,0.036478,-0.017088993,-0.014332305,0.009156556,0.0035104793,0.026797645,0.026168277,0.017884051,0.02890217,-0.0318332,0.03364312,-0.03566362,-0.013864522,0.031209815,-0.010541448,0.0047415257,-0.010429949,0.01603667,-0.012411625,0.022279408,-0.03927533,-0.030077228,-0.021592995,-0.041932963,-0.028554404,-0.017512305,0.023902057,0.016894074,0.036330882,-0.039557192,-0.035564154,0.028094452,-0.026186617,-0.038830675,-0.021608647,0.02797124,0.035141405,0.044024426,-0.0093802605,-0.034070086,0.011509398,0.0018186418,-0.03087285,0.01640143,0.012332847,-0.03389744,-0.014920074,-0.022837296,-0.030913612,-0.025885714,-0.038072538,-0.021958312,0.026150027,-0.029797327,-0.031763952,0.032507636,-0.0049641454,0.04153893,-0.022481881,-0.038988296,-0.041625954,0.027954988,-0.001755806,-0.0254445,-0.007703833,0.01961784,0.037110925,-0.037451264,0.0053905817,0.031570982,-0.024902197,0.019553402,0.009111906,-0.029180633,0.004629968,0.025380105,0.03983163,-0.027450252,0.021676255,0.011315886,0.010157875,-0.009266163,0.015457351,-0.013704216,-0.029106524,-0.029541822,0.035679948,0.013425115,-0.038268175,0.023476232,0.030766303,0.04384971,-0.031090582,-0.016969133,-0.0128852185,-0.009486665,0.023679927,-0.026301276,-0.011945434,-0.003219582,-0.023693936,0.023025913,0.008407037,0.0077096224,-0.0065106344,-0.017733812,-0.02787266,0.03810905,0.007976302,-0.02711783,-0.009571154,-0.016233807,0.037604697,0.027005566,0.038565345,-0.037451684,-0.043252528,0.021086868,-0.005352418,0.016923124,0.020512676,0.018144066,0.0025599152,0.040570118,0.015206804,-0.037795823,0.009885717,0.00015887781,-0.013763712,0.0075949146,0.03820111,-0.03842022,-0.033335455,-0.01997169,-0.011474342,-0.03288784,-0.023270719,-0.038672082,-0.024134675,0.003278303,-0.008752336,-0.042293407,0.03717301,-0.007963752,-0.043152504,-0.038089365,0.038152236,-0.038465325,-0.021201719,-0.037560202,0.008905155,0.04225189,-0.031928103,0.035783894,-0.005977519,0.020490222,-0.023760248,0.033958625,0.018932253,0.006369579,-0.033194583,-0.01276608,0.024365583,-0.0299936,-0.022628026,-0.017189544,-0.014706674,0.0020725292,0.034597605,0.02065205,-0.018559065,-0.038648143,0.034065444,0.031578593,-0.006306475,0.032476664,0.025316657,-0.00119225,0.023788087,-0.033010848,0.007541341,-0.028801987,0.015388531,-0.037067693,0.0105370805,0.041927304,-0.029075382,-0.007909262,0.021860043,-0.03826014,0.0031154107,0.04391043,0.013458648,-0.012905876,0.0294195,0.04120592,0.03668783,0.02755575,0.011733145,0.022315713,0.0026565895,-0.023015909,0.010453803,0.006589844,0.028721122,0.008752899,0.01869249,0.03431207,0.035522174,0.026084647,-0.039425448,-0.039256237,0.024371078,-0.017332243
2,-0.036133558,0.018211985,-0.039780825,-0.0247665,0.009834024,0.030372689,-0.029367106,0.007538554,0.010445548,0.018431228,0.02701939,0.026882071,-0.013685551,-0.009304496,0.025954302,0.011557914,-0.0010540611,-0.0009243067,0.027384356,-0.014511602,-0.030481117,-0.0071264263,-0.0019038785,-0.012174633,-0.028412307,-0.022812756,-0.043984473,-0.04074457,0.033780947,0.042125374,0.04183429,0.03891028,-0.029995179,-0.006242338,-0.027488891,0.033681784,-0.032130614,0.002342585,0.030871628,0.009805459,-0.03883692,-0.012882179,0.0046563996,0.02411924,-0.009438634,0.019666115,-0.012929162,0.019912083,-0.025784103,-0.007342671,-0.035871755,-0.006312091,-0.040398434,-0.03626914,0.004283131,-0.007944048,0.010433268,0.018645471,0.02587769,0.031847138,0.023227945,0.003468064,0.023998968,-0.030969467,-0.02348189,0.034630768,0.025129836,-0.0019440128,-0.0007350779,0.003365884,-0.0015015447,-0.02476003,-0.020869143,0.015166896,0.03191984,-0.02520402,0.04091512,0.021469183,-0.024629327,0.03598575,0.0061801346,-0.0067518144,-0.032533716,0.022615945,0.012578906,0.026029915,-0.0026956229,0.022343365,0.0008034875,0.008521745,-0.026846431,0.019971715,-0.013012687,0.0069928784,-0.007168067,0.025374858,-0.03787467,0.0066564623,0.009413172,0.015585362,-0.005449171,-0.018325303,0.01635176,-0.042496815,-0.013656001,-0.011116179,0.014138708,0.022288881,-0.012513905,0.024219107,0.012695942,-0.0037048555,-0.017431615,-0.040859062,0.028986227,0.030621128,0.026457325,0.02586177,0.012328295,-0.039689265,0.00399098,0.020611351,0.02696285,-0.02300515,-0.04417591,-0.025534995,0.026615603,-0.017485036,0.037163094,0.040979095,-0.0044474304,-0.01409153,-0.03755949,-0.02206151,0.020772785,0.014620647,0.03567704,-0.00040282903,-0.0013348118,0.036520217,0.0039464044,0.039558627,0.023755675,0.01963264,0.04069599,-0.00023697592,-0.012343232,0.02638829,0.012610822,-0.029303987,-0.04088668,-0.019138189,-0.0048064846,0.029790925,-0.019870006,0.014225219,0.024654847,0.03641926,-0.008335683,-0.03742353,-0.04215436,0.005454408,-0.026028613,0.03167344,0.02772909,-0.035599902,0.03684404,0.00078327284,0.039159823,0.013478257,-0.02868154,-0.018813863,0.033874158,0.025793375,0.0041986005,-0.034130845,0.038843516,0.007500653,-0.03262546,-0.016434016,0.035719987,0.009293454,-0.025211085,0.012449404,-0.01525708,-0.027075024,-0.023266856,-0.0333765,-0.012977141,-0.017699031,0.023682851,-0.008519068,-0.04222743,0.005340327,-0.018642198,0.03402294,-0.018599251,-0.0408715,0.027322847,-0.019839702,0.019478971,0.0023080457,-0.0410833,0.018355716,0.033671606,0.03135087,0.029268362,-0.012368461,-0.011621535,-0.039663482,-0.0052833655,-0.0048671705,-0.041250706,0.00931861,0.013803793,-0.03214187,0.029992761,-0.03962931,0.013950528,-0.020827655,-0.018071372,0.028843828,0.04259315,-0.02563108,-0.005733046,-0.04301383,-0.026084453,-0.007988798,0.03791617,0.02809275,-0.03393028,-0.0059727617,-0.039070074,-0.014005166,0.02320391,0.011564489,-0.032667175,0.019513512,-0.009804705,-0.0436223,-0.0003749647,0.025832472,0.005044372,-0.043015443,-0.038492836,0.009864496,0.011777231,0.025176171,-0.02725547,0.0031032409,0.018289119,0.023638006,-0.03362594,0.023447124,0.015761605,-0.012606412,-0.02802083,-0.0028018276,0.019836035,-0.009512211,0.020260563,-0.04017481,0.036138467,0.04404212,0.0026688017,-0.006190071,0.010878323,-0.022322446,0.041001074,0.009989778,-0.021220194,0.013720791,0.034576967,-0.038539246,-0.043807,0.042577237,-0.041968834,-0.018980095,0.021968365,-0.03828138,-0.031362876,0.04212485,0.041519318,0.009690108,-0.02988592,-0.017378362,-0.0032886236,0.0081961285,-0.04014394,0.016549965,0.031292807,-0.0076397695,-0.009750831,-0.043428574,0.040853083,0.034978315,-0.008863656,0.032006484,-0.0096995495,0.0428626,0.007872562,0.017407559,0.03962732,-0.041510493,0.00919611,-0.030432126,-0.013195335,0.015267064,-0.012506898,-0.034349516,0.0017342954,-0.0026815615,-0.0028805474,-0.017910093,-0.020663356,0.032439012,0.03458663,-0.032780122,0.042569414,-0.038807943,0.000999602,-0.009756342,-0.039704207,0.027161209,-0.011352043,-0.024604587,0.031221246,0.006669412,-0.0013445108,0.017132763,0.02586273,0.02506334,-0.019037036,0.007531094,-0.025527956,0.027843462,0.039209,0.024283096,-0.04347218,0.005641245,-0.009445624,-0.022167651,0.00085673475,0.001288524,-0.01401861,0.018351296,0.023369368,-0.0054608826,0.03322587,0.021159146,-0.018738093,0.025747942,0.018476468,0.026239531,-0.028895479,0.002813044,0.034577716,0.03313854,0.016555483,0.033661153,-0.022073673,-0.013064659,-0.04147287,0.0178063,-0.03309662,0.017491844,0.023771707,-0.02987014,-0.0073403795,0.033901066,0.008197114,-0.042331345,0.033578668,-0.013844766,0.015968466,0.00437842,0.03918476,-0.036470614,0.022938896,-0.0032328265,-0.039389133,-0.039711636,0.03295777,-0.039282937,0.039105788,0.02347051,0.033484776,0.01421717,0.026324937,0.041680466,-0.005973573,0.020701036,0.028151581,-0.030819556,-0.018969359,-0.030353338,0.02922651,-0.039391104,-0.015688136,0.016066067,-0.04215709,0.021458087,0.01676239,0.015375939,0.019182127,0.007745553,-0.030342817,0.018918077,-0.016889807,0.025893422,0.015222288,-0.016394475,0.014290305,-0.028033808,0.012997609,-0.027499896,-0.026808415,0.022959791,0.004520692,0.013122811,-0.03817243,0.031888857,-0.029138297,0.04264352,-0.027855247,-0.003972151,-0.0075656385,0.004935417,-0.034594342,0.019183692,-0.004040123,0.012005682,-0.041009124,-0.039908487,-0.036354903,-0.019909207,-0.036719777,-0.015157234,0.01458036,0.0066065816,-0.03992937,-0.041284148,-0.025189321,0.031154387,0.026336644,0.0035146205,0.024934523,-0.0211667,-0.0029618856,-0.039766766,-0.01766436,-0.037431866,-0.030293068,-0.005458017,0.0051743737,-0.027070004,-0.017693494,-0.030118933,-0.042041186,0.02734646,0.022215366,-0.031537306,-0.035667986,0.015266579,-0.02774088,0.00020614023,0.034150597,-0.040919952,0.006056286,0.010688082,-0.02711558,0.01450085,0.023297133,0.033206344,0.03312533,-0.013700344,0.012333363,0.017731095,0.029394118,-0.012472685,-0.008019201,-0.016633654,-0.004103075,-1.4045437e-05,0.0035963852,-0.0368067,0.006218404,-0.032257512,0.024745874,0.031119373,-0.03859158,-0.01568641,-0.022602716,-0.00408944,-0.009731902,-0.031625204,-0.036920086,0.03801887,-0.040863514,0.019670276,0.015369923,-0.011038123,-0.005036522,0.02494704,0.032759164,0.022020347,-0.026934406,0.008827141,0.004703267,-0.015447737,0.0075649167,-0.042154733
3,0.043317545,-0.0410749,0.028052894,0.030048622,-0.015736837,0.033735238,0.034662057,0.013834871,0.01460678,0.020131253,-0.03996728,0.020874154,-0.015132235,0.04312368,-0.008271972,-0.027301263,-0.007813551,0.018601848,0.014191523,-0.0052396436,0.042483423,-0.02762896,0.027238665,0.037746955,0.038810983,0.012950736,-0.017884187,0.039705813,-0.017476896,-0.025734898,0.010867412,-0.004153224,-0.03936858,0.03896271,0.00836018,0.031306025,-0.025555268,0.014639776,-0.019785654,0.009608275,-0.007439914,-0.03596109,-0.02722142,0.039191984,-0.009621262,-0.0029147442,-0.03022903,-0.034601673,0.044041328,0.023013253,0.007957446,0.0043272274,0.029673304,0.020546198,0.029726593,-0.017043222,9.792293e-05,0.030935554,-0.033057615,-0.028519528,0.018865457,0.0029621227,0.0030217709,0.022169579,-0.011039523,-0.0049638026,-0.035847623,-0.00036597162,0.016792974,0.035413187,0.0035765972,0.013455703,-0.032853443,-0.012894754,-0.039490584,-0.041134853,-0.03711023,0.022839472,0.014106545,-0.025525885,0.042501096,-0.036428,0.0022447885,0.021118542,-0.00921476,-0.017233398,0.039566796,0.04018829,-0.036034275,-0.011032032,0.008944099,0.023460569,0.041803665,0.005097219,-0.022604292,-0.037601527,0.009352064,0.026279002,-0.0023978448,-0.037219923,0.035704993,-0.026657002,-0.012728422,0.0036672764,-0.027689653,-0.015830303,-0.026371483,-0.029700447,0.004275445,-0.033017546,-0.03335061,0.001642979,-0.028231502,0.013096928,0.037155244,-0.033219457,-0.011812023,-0.040065184,-0.00022276716,-0.043518845,-0.0376335,-0.0031950946,0.03312767,-0.019149888,0.01051762,-0.024519503,0.0011496659,-0.029377017,0.002539432,0.043208152,-0.022451963,-0.02098864,-0.017354645,-0.010224162,-0.037363254,-0.0077874837,-0.03822992,-0.026058916,-0.0024059159,-0.04389878,-0.009432739,0.02617806,0.009200209,0.0002724741,0.008985814,-0.020973993,-0.021443283,-0.00023450506,0.029849688,0.03465217,-0.038648207,-0.0387964,0.013639652,0.031514093,0.0018637495,-0.035489723,-0.003048176,-0.04253361,0.0138204675,-0.03961997,0.024319485,-0.010702238,-0.01623012,-0.008511055,0.041351125,0.03559213,0.038601186,0.013476676,0.016585806,0.035439268,-0.0077941795,0.038975645,-0.002672026,-0.018444773,-0.039576426,0.022276849,0.009226482,0.032490134,0.019493565,0.044056855,-0.013601773,0.0039250515,-0.017585183,0.0225532,0.023002727,-0.016679704,0.012032219,-0.015474726,0.028465344,0.011203264,0.020629754,-0.033922553,0.023383418,-0.00294175,0.04138138,0.024435863,0.028508723,0.021631937,-0.019166833,0.02446661,-0.003725028,0.03184223,0.028607864,-0.030831853,-0.04182481,0.011126104,0.020000491,0.0066882465,0.0140898805,0.020383095,0.008704562,0.041802146,-0.04339647,0.0007167598,0.015061466,-0.004095409,-0.021592183,-0.0032527042,0.014856632,0.015160279,-0.027933592,-0.0026322657,-0.027894221,-0.011896659,-0.0018722367,-0.018771248,0.041706804,0.02542204,0.012470847,0.016345922,0.021387955,-0.022227341,0.036472898,0.00744523,0.0107272575,0.036602784,-0.003314934,-0.013829724,0.02812802,0.039857596,0.038460523,0.019425398,0.03808428,-0.024782116,0.0033616694,0.022470882,0.009341148,-0.0201485,-0.026961697,0.016977925,-0.040106077,-0.019125998,-0.033151798,-0.042497616,-0.0019082618,-0.03684185,-0.027744817,0.027395673,0.031947467,-0.008086015,-0.03333402,-0.035725527,0.015161923,0.0004517826,0.004066955,0.028918607,0.022021223,-0.015646016,-0.037658866,0.029815935,0.025916127,0.008449289,-0.025477765,0.03766399,0.0029354806,-0.030055998,-0.035500363,-0.03903591,0.021234503,-0.035114057,-0.028076813,-0.03547677,0.020900648,-0.00974806,0.0052670073,0.036743328,-0.031378638,-0.031227933,-0.04349768,-0.01611422,-0.022287758,0.021650631,0.0060368036,-0.024576243,-0.033186786,-0.008097679,0.029667513,0.0024515241,0.02059856,-0.019560553,-0.016531305,-0.022967514,-0.014554213,-0.025544336,-0.013567856,0.036908776,0.04200563,-0.034917068,-0.013914392,0.03842359,-0.032425113,0.03233944,-0.026577538,0.031109769,-0.025433062,0.037380286,-0.008742526,-0.02755051,0.024898656,0.02488784,0.018291885,0.034203436,-0.0006510845,0.0067109214,0.032119147,0.014339416,0.022814542,0.043042168,-0.011940965,0.042516682,-0.004431214,-0.025450949,0.02048467,-0.013295255,0.0073485556,0.022344114,0.008021946,0.0065448047,0.014285126,-0.033064045,-0.0011063652,0.011071797,0.015270562,0.037784874,0.017133689,-0.03619835,-0.010993668,0.013218864,0.043972254,0.029559482,-0.014918156,0.013949969,0.028772335,-0.040505983,-0.020293854,-0.026224727,-0.009227852,0.0028303557,0.037626546,-0.028174724,-0.040134374,-0.01890883,0.040183067,0.0074995994,0.02065207,-0.028000195,-0.0035552657,0.025855938,0.0058707874,0.007985452,0.040183395,0.009254668,0.042181786,0.009302694,1.1506089e-05,0.00035419685,0.04139783,0.023160858,0.024406886,-0.023192978,-0.01587567,0.014938982,0.0093333665,-0.002827569,-0.041277084,0.04189189,-0.03347734,-0.016445931,0.018250043,-0.023870483,-0.039608475,0.024777673,0.041082654,-0.04204775,0.007440478,-0.025562817,0.0056691356,-0.02468631,-0.031810813,0.01256789,0.015267169,0.041278016,-0.025735693,0.030815937,0.030172154,-0.03241026,-0.0064156246,0.012789714,-0.04214583,-0.019706422,-0.023339022,-0.0048815166,0.016105022,-0.036272123,0.044029873,-0.006894239,-0.03781111,0.033312146,-0.044060793,-0.0045760255,-0.0017444317,0.033808503,0.038905945,-0.01608456,0.03562466,-0.016330691,0.018213518,-0.043226656,0.00590785,0.03650829,-0.033130948,-0.006353421,-0.0239618,0.033309333,0.04350702,-0.009523502,0.042450637,-0.02251179,-0.013953499,-0.035676323,0.028488098,0.034612186,0.0222293,0.013813692,-0.037556957,-0.020398369,0.015764812,0.043054394,-0.0350628,0.018947253,0.028485395,-0.027029349,-0.010460652,-0.017303674,0.033251867,-0.022925077,-0.04374082,-0.02858112,-0.04394409,0.025109986,-0.019763315,0.018592903,0.0079890825,0.009713294,0.038533382,-0.022772685,-0.030340973,-0.025540141,-0.00013400063,0.011348961,0.029052138,-0.03211567,0.022001877,-0.043100927,0.036999527,-0.016065018,-0.032651205,-0.016532907,-0.042894363,-0.0017598785,0.010650472,0.034085743,-0.03565867,0.043559883,0.0019651337,-0.027332721,0.018492857,0.016447196,-0.042741936,-0.043687835,0.020231092,0.026052115,0.025508368,-0.013707878,-0.00931066,-0.0072435522,-0.043137804,0.032370366,-0.043430068,0.041957203,0.0062369746,-0.005876804,0.011988908,0.021703351,-0.008774352,0.0050718356,0.041871645,-0.031249449,0.013744588,-0.0023577895,-0.0019775722,0.010317127
4,0.0044181067,0.044154745,0.030501552,-0.008687498,-0.012870114,0.037524246,0.024477398,-0.03314031,0.017388668,-0.043878935,-0.042896546,0.0021686028,-0.015967317,0.039530694,-0.04398848,-0.033168588,0.025703419,0.035895552,0.00047238712,0.012001162,-0.012476189,-0.01781698,0.028384063,-0.043942932,-0.0057896543,-0.033492558,0.037199404,0.04201425,-0.03158111,0.035854165,0.0077681015,-0.006140601,0.03838404,-0.0041396003,0.015719399,0.026262492,-0.024474474,0.008141849,0.041785933,0.0011611193,0.013395069,-0.024010932,-0.0041989796,0.028710669,-0.033320412,0.036534447,0.022757549,-0.03639549,-0.022456815,0.014732315,0.008941944,-0.019370923,-0.03322999,0.0053878054,-0.010142475,-0.023074104,-0.014473976,0.012648559,0.03667625,0.008876242,0.00845991,0.015599412,-0.02792636,-0.036799494,-0.042861823,-0.018782062,-0.005260559,-0.009141135,0.0042317333,-0.031589087,-0.01261649,0.002576832,0.03688925,-0.043452393,0.011670557,0.009054197,0.022056878,-0.033436712,0.034707464,0.017750224,0.03740865,-0.019068167,-0.0018392673,0.039003927,-0.02183282,-0.008842646,0.0015046741,0.010137297,-0.022032334,0.023005066,0.026492592,-0.03233411,0.02246948,-0.0433164,0.011578387,0.034377147,-0.0019875083,0.04145624,0.025160594,0.020982528,-0.027246814,-0.02543047,-0.010858176,0.015940575,0.041480172,0.005223954,-0.03816553,-0.035871223,0.027118098,-0.012834695,0.027046286,-0.028532984,-0.0018677218,0.005143549,-0.017347658,0.034015663,0.022572888,0.035287052,-0.008800388,0.0067266896,-0.030728435,-0.029554656,-0.02760491,-0.036925748,0.020940829,0.026002767,0.0074993097,-0.044041537,-0.009943395,-0.00512198,-0.022477014,-0.0041279835,0.0079506235,-0.040332183,0.027169501,0.042049434,-0.024010817,0.015132136,0.008019075,-0.010305563,0.0045350534,-0.018652689,-0.005625034,-0.040539093,-0.009224797,0.04257337,-0.0058840374,0.023299847,0.04226762,0.0017703203,-0.029955598,0.03919927,0.033576593,0.025520712,-0.042998813,-0.008188716,-0.0038435976,0.03501395,-0.010596645,0.019012243,-0.03131624,0.0055536954,0.0015680208,-0.0038401363,0.028624484,0.002497933,0.011190051,0.042280827,-0.014260787,0.005479522,-0.010963907,0.028363416,-0.026417881,0.0271944,-0.03700223,0.027126327,-0.026391177,-0.014377707,0.0024994924,-0.026313668,-0.022516347,-0.011941245,0.031925946,-0.013297399,0.010228302,0.021086141,-0.004559857,1.547843e-05,0.0027017025,0.004788493,0.021202425,0.0070362845,-0.0210332,0.036080893,0.029598456,-0.019317644,-0.023289457,0.0065919673,-0.02860613,-0.0071252673,0.026213728,-0.0016754899,0.0052094716,-0.025249248,-0.039154634,0.019373441,0.008472354,-0.027439257,0.035676405,-0.0046407524,0.026400764,0.0075333803,-0.041015014,-0.043063004,0.0076804147,0.03295446,-0.034159478,-0.009538554,-0.03177871,0.03461508,-0.03610621,0.0141959805,0.017763564,-0.030018013,0.0116475765,-0.0296326,-0.029228339,0.02106688,0.036150794,-0.026926447,-0.04143583,0.0152910715,-0.03762984,-0.043250836,-0.03501455,0.0027664874,-0.022212373,-0.014913451,0.014917471,0.011748766,-0.002219179,-0.019705143,0.016335696,0.037422866,0.021951212,0.040625636,-0.034311164,-0.02985364,-0.037024457,0.026414968,-0.029095143,0.04059735,-0.044151578,0.017297698,-0.015594049,0.003499358,0.036542814,0.007038439,-0.030891068,-0.027057169,-0.028381629,0.031687595,-0.030751567,0.02714994,-0.013999334,-0.017828943,0.0105012925,0.029540842,-0.036143214,0.010229936,0.008942834,-0.029188579,-0.009726581,-0.016792526,0.022263894,0.021312907,0.028828464,-0.038240068,0.030262955,-0.023228329,-0.016917724,-0.0053410805,0.018808046,-0.033638336,0.0023905113,-0.016233712,-0.017385412,-0.008200596,0.035394885,-0.015233604,-0.0031571202,0.04292192,0.022748902,-0.04339483,0.012809702,-0.037371036,-0.038711302,-0.020547189,0.029476298,-0.019395432,0.02432736,-0.017444607,0.01876757,0.019344602,-0.016453708,0.015215834,-0.017307198,0.009516595,0.039954834,-0.015278296,-0.028791402,0.0143964095,-0.028422864,0.0060499744,-0.027455147,0.0027895418,0.04054094,-0.0025819317,0.031254902,0.042021994,-0.0030946902,0.023560867,0.0007255106,0.020565597,0.02849679,0.017781276,0.0035177919,0.005854171,-0.028785195,0.020668387,-0.0033465966,0.03499371,0.004240974,-0.025590202,0.03440882,-0.00019155742,-0.02183243,0.020402798,0.0397793,-0.005150866,0.016537748,-0.023022395,0.014042976,-0.019085,-0.0023985032,-0.0019276703,0.043542776,0.021594943,-0.03553121,-0.044171456,0.0078025986,-0.04386908,-0.002673206,0.025256082,0.042697508,0.020427091,-0.016126892,0.04069093,0.0017554215,0.003376168,0.021925854,0.0075361305,0.025044605,0.030434292,0.000922094,0.038840096,-0.040168233,0.0082773985,0.01919909,-0.03649558,0.043481458,0.0020347286,-0.004424149,-0.029344885,0.038813554,0.008492917,-0.043433666,-0.0240109,-0.038291186,0.016997218,-0.00865249,-0.015325015,0.039881293,0.025348574,-0.011833823,-0.024242546,-0.0356917,0.012728196,0.008406426,-0.014621232,-0.03768866,0.015369238,-0.003903072,0.017221391,0.028320279,-0.0039584953,-0.033629566,-0.0014993267,0.006462381,-0.016634265,0.00475938,0.042205755,0.02716987,-0.014202814,0.0008951991,0.038211703,0.016256608,0.003956941,0.03848356,-0.0045378613,0.017602863,0.0317594,-0.024766425,0.030246105,-0.03266133,-0.043007195,-0.0243297,0.027172916,-0.03426998,-0.02261801,-0.0255132,-0.034927577,0.0059405877,-0.00078857277,0.019706639,-0.004062761,-0.03596895,-0.027539162,-0.013794869,-0.036736548,-0.035646297,0.040543534,-0.013202384,0.03227222,0.023639018,-0.012638006,0.031798348,-0.021452973,0.035298716,-0.026953973,0.042482868,0.019364754,0.007262513,0.03636834,0.022955075,0.041355476,0.019389672,0.0054070824,-0.029598836,-0.03851217,-0.019869557,0.017918753,-0.032136966,0.0015701386,0.035812724,0.018062606,-0.009196253,-0.037845805,-0.043060914,-0.035526723,-0.008486742,-0.011683317,-0.021117978,-0.0441628,0.021430291,0.0032611967,-0.020371616,0.008223782,0.024860509,-0.0040544844,0.004908285,-0.010311537,-0.008710183,0.0028383583,0.010058667,-0.019634457,-0.041909155,-0.021129,0.036074724,-0.010820734,0.018298002,-0.03253073,0.00181851,0.027065646,-0.03790954,0.035541825,-0.030915176,-0.03264472,0.005996796,-0.0015703968,-0.013749792,-0.032424606,0.008726931,0.042868886,-0.010392727,-0.0053910506,-0.0060282056,-0.020808848,0.0016772338,-6.512215e-05,0.036149953,-0.007605072,-0.016710592,-0.0011775777,-0.017940069,-0.02365026,-0.039031737,-0.029007388,0.009250827,0.0073332777,0.010304024,-0.03657877
5,-0.035631888,0.020822166,0.017917447,-0.03478905,0.018616205,-0.0019524106,0.005147173,-0.021723945,0.029247131,-0.01378793,-0.0027074292,-0.011686367,-0.019409081,0.007789259,0.03189045,0.02638986,-0.0076119103,0.0064201555,-0.02722679,-0.025078492,-0.024149707,0.0068021114,0.0017785021,0.025996517,0.0074411733,0.01024023,0.024772394,0.02981839,-0.009928233,-0.014659053,-0.004409298,0.032376513,0.021593854,0.008029944,-0.010926918,0.0084224045,-0.028680077,0.037788495,0.00025958245,-0.01929096,-0.038824458,-0.019988364,-0.026329516,-0.014603225,-0.012687102,0.0070617096,-0.021449974,-0.0026080469,0.019271478,0.012132266,-0.032213595,-0.016368613,0.018567562,0.02072849,-0.033805303,0.0014995427,-0.016021855,-0.023349823,-0.028890768,0.004067603,0.025876168,0.0074275127,-0.022918107,-0.008858451,0.0026135999,0.0014092852,-0.025723943,-0.03931563,0.03726141,-0.040885974,0.032444343,0.033274114,0.038737573,-0.0151685765,0.030927278,-0.027971435,0.03790744,0.037611954,0.0028828497,0.007964079,-0.042040184,-0.032236785,-0.036150374,0.016029399,-0.009295982,-0.040825818,0.010785484,-0.002751931,-0.037803125,-0.041556828,0.039536655,0.013419356,-0.006435676,-0.026278386,-0.037011232,-0.011931441,-0.0050762245,0.031655807,0.010068413,-0.025506297,0.043338165,0.03710766,-0.0237274,0.027606808,-0.025802268,0.035699345,-0.008491099,0.0360632,-0.043141175,0.020852322,-0.01904114,-0.025015512,-0.015769633,-0.026390301,0.035873838,-0.04131784,-0.009405364,0.021138167,-0.031305287,-0.039611753,-0.004025588,0.034870528,-0.009359545,-0.03702755,-0.033795435,0.039533306,-0.0016029605,-0.016428366,0.034513563,0.028228916,-0.042004503,0.011715312,0.023198478,0.009282601,-0.022778992,0.010446391,0.04152571,0.017651996,0.014059488,0.015744023,0.040903773,-0.023485893,-0.0056518763,-0.005723679,0.020613074,-0.0028320786,-0.03118677,-0.0073564425,-0.030977232,-0.03547203,-0.017576473,0.006571231,0.006915381,0.031893954,-0.01328329,0.005545519,-0.036892388,-0.0038727159,0.03087527,0.023013886,-0.02996155,0.0039549074,-0.03215638,-0.022408657,0.0070253843,-0.024746895,0.013387293,-0.017602041,-0.028220624,0.022180974,0.022469416,-0.01695379,0.019360386,0.011996695,0.02722177,-0.0071551227,-0.027276503,-0.0075222114,-0.0011168019,-0.030895716,-0.017510077,0.016427472,0.013775661,0.0024219633,-0.02490315,-0.02233354,0.042667516,-0.018056009,0.043399684,-0.010552507,-0.002983649,-0.016038235,0.023319203,-0.040933535,-0.011758396,0.014258742,-0.0045092227,0.018811103,-0.03305563,0.031900592,-0.002612899,-0.01847851,0.0037045078,0.031277172,0.04175402,-0.0072101825,-0.010093701,0.0002704774,0.0038075831,-0.020459218,-0.039129242,0.043490037,-0.043343764,0.033667397,-0.018294124,-0.017360644,-0.0065744184,0.028371071,0.0062483335,-0.03088474,0.0064239698,-0.025805803,-0.03703026,0.00928365,-0.0009326465,-0.014514421,0.0077297953,-0.019887043,-0.014620441,-0.025952822,0.0077360063,-0.002321127,0.018747676,0.024279967,0.013746168,0.040646035,0.019994875,-0.01687987,0.028507333,-0.0358376,-0.034833137,-0.0410028,-0.009469306,-0.02434639,0.0053977575,0.013164726,0.03324971,0.0058038738,-0.02454899,-0.003519915,-0.040827964,-0.00875653,-0.02839459,-0.013252691,-0.025382923,0.021509422,-0.030222287,-0.030365376,-0.01109166,0.0075895675,0.043972254,0.021369958,-0.021944394,0.011174436,0.005180232,-5.1540326e-05,0.03749824,-0.04295847,0.023645477,-0.031971462,0.026427554,-0.003445215,0.03751607,0.033619277,0.01465733,0.0053314813,0.01070257,-0.0034050543,-0.033177752,-0.03222105,-0.00843282,-0.03670971,-0.014806799,-0.03884273,0.030941987,-0.040483356,0.0063444385,-0.014643348,-0.021328054,0.0014017989,-0.005181765,0.020860747,-0.03533804,0.0151138175,-0.031917386,0.02439957,-0.0074098217,0.0007534065,-0.0049557737,0.02135879,0.040671777,-0.035611324,-0.027310224,0.009727777,-0.028192706,-0.03149293,-0.0164677,-0.0051416205,0.0016506339,-0.027128324,0.0079371,-0.039462652,0.0036925855,0.03577298,-0.013248957,0.030971622,0.02853543,0.007417366,-0.025298424,0.0020565975,0.042343706,0.00060922216,-0.012685274,0.0037533455,-0.030044533,-0.03656846,-0.030014899,0.022555476,-0.028330332,0.036143467,-0.042936865,0.0120446365,-0.038964897,0.03323812,0.0041523655,-0.015096348,0.032055058,-0.0008602646,0.04262501,0.008843721,-0.019723197,0.0229544,0.0025017106,0.023509037,0.0007877562,0.013889299,-0.017456945,0.012482448,0.038510814,0.0086325705,-0.040240176,0.025047213,0.0425554,0.03692647,-0.006260909,-0.02500099,-0.014866673,-0.03513273,0.035080265,0.021694273,-0.028215982,-0.013223689,-0.034346513,0.029372586,0.022308607,0.02272027,0.033019688,-0.011646012,0.03078098,0.024504984,-0.023115754,-0.036787417,-0.025394699,0.029837197,0.01776672,-0.006386164,0.011448106,0.03469757,-0.034480266,0.013914529,-0.029794814,0.018264689,0.0043019657,-0.043620907,-0.023195518,-0.006056486,0.03264183,0.029923234,-0.02564625,0.0400901,-0.006549362,-0.012110164,-0.03230651,0.0025785968,0.041527253,-0.017404504,0.012475251,-0.009983714,-0.025977604,0.03629303,0.02804661,-0.02863529,0.0016517666,-0.032505494,0.03600778,0.022852037,-0.022285799,0.033799227,0.029396689,0.012448145,-0.026682042,-0.029017588,0.012531801,-0.04412284,-0.0067326375,0.024434382,0.043376688,0.0018608676,0.038461454,-0.032014243,0.015653666,-0.021627082,-0.00820961,-0.022920478,0.036701303,-0.022724716,0.01779755,0.042276938,-0.037368085,-0.035867125,-0.016715977,-0.0073378873,0.008325304,-0.002578755,0.0035744163,-0.014915691,-0.03068693,-0.042798158,-0.010711105,-0.011215145,-0.031756558,0.014479918,0.021285966,-0.03330048,0.012501524,0.03651899,0.027717236,0.040460233,0.042698644,-0.023636052,-0.024141371,-0.014777812,0.014241394,-0.038944356,-0.03425699,0.030772394,0.031311467,-0.036806874,0.014400229,0.008282709,0.022955107,0.005880149,-0.028373068,-0.0065965927,-0.020055251,-0.027772048,-0.007460466,-0.006683078,0.030013666,0.00206489,0.032794405,-0.017749256,0.030203037,-0.005785519,-0.012328606,-0.016692918,0.021674186,0.019607589,-0.0026705032,-0.0070344615,0.037333906,-0.014301337,-0.020530425,-0.044012126,-0.00023705495,-0.013466645,-0.010958544,-0.031871647,0.01155047,-0.003751454,-0.016378919,-0.03467724,-0.003665464,-0.0401028,-0.04075381,0.012955114,0.034370676,-0.03147479,-0.004173834,-0.021606566,0.01547923,0.01820345,-0.0057555,-0.04233922,-0.024361469,0.040674843,-0.02297499,0.042405136,-0.010009038,0.0044849776,-0.014826307,0.0007737371
6,0.021429338,-0.020578552,-0.0077646715,0.00162533,0.018048018,-0.0013274361,0.020337777,0.022371568,0.0055677723,-0.0011908223,-0.0119965365,0.029262535,0.013377725,-0.041999724,0.022530535,0.034087576,-0.0365071,-0.0014420333,-0.04402496,0.041564383,0.034497652,0.034089345,0.033675775,-0.017153677,-0.03569038,-0.020826876,0.03410836,-0.013713863,0.016157195,-0.01520515,-0.0022531757,-0.008319356,-0.035425436,-0.035229485,0.04227351,0.02468396,-0.030424861,0.038031902,0.0381119,-0.026465902,0.01623828,-0.019371118,0.006708424,0.029489722,0.013418002,0.035696458,-0.03792173,0.000830825,0.020359036,-0.03459008,0.010383355,0.035776258,-0.04085554,0.011396918,-0.018487146,0.03916867,-0.0035043682,-0.00038476384,-0.0010179254,-0.009204276,0.029729474,-0.039583024,-0.007014974,-0.026913213,-0.029549861,-0.026799168,-0.03538293,-0.006157433,-0.0020131653,0.015223073,-0.031161435,0.0012163317,0.016807616,0.026443291,-0.01184093,0.017287478,0.007092661,-0.009442585,0.040937297,-0.02110436,0.024811396,-0.03483731,-0.03575392,-0.03858572,-0.029376816,-0.040095728,-0.015520788,0.017182458,0.040872257,-0.018297818,-0.039573647,0.007158621,-0.005413984,0.040472705,0.025496967,0.0066910437,-0.03666348,0.031083122,-0.038017027,-0.0073513323,0.038741503,-0.026567798,0.009002862,0.008005894,0.0006113558,0.025785668,-0.01686572,-0.005591143,0.0330516,-0.018011235,0.01716906,0.038753558,0.029226558,-0.0071004266,-0.0076498743,0.014583342,-0.010729819,0.03333165,0.029392041,-0.023699183,0.037312668,-0.011851852,0.018834462,0.02946377,-0.03257839,0.027199684,0.042405777,-0.020685045,-0.041586973,-0.029741576,-0.01407121,-0.017286967,-0.037717655,0.040953517,0.015636038,0.042162642,0.024805237,-0.016792452,0.028894356,-0.016721942,0.0035423057,-0.041388985,0.027250787,0.022044409,0.022613991,-0.030082608,-0.034014504,0.012502251,0.0048732134,-0.013273454,-0.01874263,-0.030979287,0.04229302,-0.008971246,0.03504099,0.031794533,0.036990967,0.026879642,0.033655047,-0.013564526,0.0006940321,0.030097876,0.042272013,0.003890544,-0.0076165204,0.0070045954,-0.038203888,-0.01700705,-0.043722685,-0.027863791,-0.035003114,0.028644959,-0.04247782,0.026266748,-0.0071896357,0.023742758,-0.008383113,0.019171933,0.010193536,-0.028172828,0.015428254,0.00029622912,0.019950837,0.0073604994,0.042707592,-0.00949256,-0.013580483,0.01586899,-0.013966138,0.02835601,-0.0064922585,-0.020207664,0.037077174,-0.038764305,-0.004124564,0.006632439,-0.04116136,-0.0018241841,0.03781031,-0.013277058,0.034052867,0.0040769596,0.012680142,0.04187342,0.027610563,-0.0078429645,-0.02384481,-0.00012619293,-0.024171544,-0.01290007,0.020558717,-0.030839602,0.039579675,-0.0043991827,-0.038773067,-0.017104765,0.020678455,0.0065823733,0.0003190095,0.015598359,-0.0051410515,0.039073694,-0.024582645,0.009730912,-0.010805282,-0.032666415,0.04176357,0.015300659,-0.012513246,-0.021005219,0.028465454,-0.04083154,0.025941396,0.003100854,0.001970502,0.011101769,0.015316301,-0.015039839,0.0027987456,0.0032121483,-0.024148675,0.011070623,-0.04215192,0.0077676587,0.013934522,-0.035670668,-0.010479429,-0.017316153,-0.0047472627,-0.04297206,0.033278603,-0.00929347,0.03624112,-0.014891103,-0.00029659263,-0.026017291,-0.0098259,0.028268253,0.029554296,-0.029946294,0.039720163,-0.028390981,0.03633462,-0.023956647,0.038265955,-0.024965279,-0.019352157,0.039646152,-0.03179255,0.013497528,0.018156378,0.008938962,-0.03891452,0.004240821,-0.004857677,-0.034396026,0.037012808,-0.007591954,-0.030628499,-0.011858669,0.0044455496,-0.03692577,0.03210153,0.03507607,0.02964681,-0.019471828,-0.037889943,-0.036970597,-0.036960788,0.00042206908,-0.011680856,-0.0070868977,0.009171149,0.029645998,-0.006706949,-0.028872987,0.019919692,-0.0337896,0.0024144717,0.017421067,0.008355823,-0.042608045,0.025837192,-0.019163534,0.03335953,-0.028270552,-0.00913545,0.029989917,-0.023519047,0.02693132,-0.025423195,0.0064005572,-0.0322006,0.020085828,0.026062287,0.03867725,-0.04384204,-0.023566335,0.037895434,-0.043764524,-0.00714368,0.022487044,-0.0017658897,0.027977673,0.025541037,-0.035265725,0.009316829,-0.023101661,0.040436614,-0.021164993,-0.022925988,0.010675233,-0.041407857,-0.011895695,-0.0150810955,-0.032792408,-0.0011092313,0.04165466,-0.031690843,-0.0058298837,-0.015007102,0.032130834,0.03915566,0.011480912,-0.013006586,0.04382198,0.01228579,-0.026752401,0.010693962,-0.00018799602,0.02328,-0.040454313,-0.00010167927,0.0075693843,-0.0072201923,-0.009814784,-0.026225239,-0.024702746,0.0037933323,0.0016528993,-0.015730351,-0.016801177,-0.008959856,0.04334624,-0.030057572,-0.03663648,-0.025778966,0.010083491,0.009153552,-0.02901506,0.00011736317,-0.018163031,-0.00015056961,-0.02001773,-0.016692054,-0.023591714,-0.025264606,0.02303622,0.007662497,0.014551984,-0.009670425,-0.01549228,0.011444445,-0.004926582,0.013485743,-0.006972058,-0.031001315,0.027624404,0.019473404,0.04132781,0.01387981,-0.01864418,0.0121569,-0.041410353,-0.008578322,-0.023766238,-0.013874252,-0.037852485,-0.008226738,0.009846415,-0.0050961543,-0.012627802,0.003729585,0.021738026,-0.040107373,0.0063340915,-0.019536719,0.014390667,0.014906455,-0.030572418,-0.018579211,-0.038468868,0.011961976,-0.008349464,0.028403409,-0.008451992,-0.031569395,0.042028278,-0.016060214,-0.018736392,0.010971172,0.009504378,0.004646416,0.026927637,-0.0335105,0.0371109,0.0013800827,-0.010466875,-0.016164897,-0.0046410635,-0.022693064,-0.02227268,0.039769676,-0.0070509464,0.02711312,-0.040179085,0.03901393,0.035337824,0.036626842,0.019806253,0.0005004727,-0.04037366,-0.012561731,0.010099296,-0.002684222,-0.019736962,-0.030065876,0.035520863,0.042925145,-0.03391164,-0.033918403,-0.024005033,0.023619957,0.0051774927,-0.023179717,-0.019435761,0.021861048,0.017339371,0.027360069,-0.025776107,-0.020348245,0.020245438,0.022872962,-0.03021527,-0.041019835,0.037056778,0.040036656,0.035275612,-0.01167405,0.005277934,0.009204408,-0.010238429,-0.03613253,0.012869024,-0.043294575,-0.039709274,-0.00043966537,0.019416647,0.017585814,-0.016764473,0.01922557,-0.024870222,-0.012367386,0.041411247,-0.004214105,0.030798346,4.314257e-05,-0.000638746,0.015812954,-0.026632825,-0.02931701,-0.009691521,0.014792137,0.013302114,-0.0058999634,-0.0037884326,0.014401946,0.015348923,-0.007417598,0.018774202,0.0011369375,-0.022345722,0.0031380856,-0.031091077,0.04080221,-0.022920242,0.036724713,0.004842478,-0.013290682,-0.0032197295,-0.0024955096,0.038293373
7,0.04003475,-0.038335193,-0.0012259991,-0.03195495,0.006831867,0.0063574095,0.01634931,0.040616058,-0.0030382609,-0.029115606,-0.034460146,-0.011992585,-0.043265793,0.035055947,0.024576776,0.023800656,0.028187849,0.02107784,0.010536412,0.01267547,0.0063256887,-0.037179288,0.03441873,0.04069185,0.015474774,-0.042913377,0.020191522,-0.022428146,0.008521487,-0.021587057,-0.03154874,-0.0038281402,0.03276321,0.043580484,-0.021806162,-0.016015634,-0.0013734499,-0.040404473,-0.033987276,-0.02305088,0.0378134,0.035912838,0.0141321225,0.037474122,0.008838194,0.010228792,-0.03056306,0.0362363,0.007437117,-0.030353723,0.029937433,0.0041707363,-0.03965118,-0.042416763,-0.030557254,0.027787907,0.0057153604,0.024095707,0.009809595,0.034503408,-0.004723529,-0.009551008,0.04017307,-0.00724322,0.0098066125,-0.0039345874,-0.01878867,-0.02088488,-0.039281826,0.04359127,-0.024107423,-0.03198656,0.043283075,-0.008029528,0.020417377,-0.01740661,0.004413718,-0.03273286,-0.012552174,0.027906092,-0.022090016,-0.040815108,0.028071966,-0.021158746,-0.030275203,-0.0062200003,0.014997814,-0.029457781,-0.042546205,-0.021489855,0.0340818,0.008061802,-0.014906713,-0.013560137,0.005814147,0.008311495,0.013490526,-0.008366228,0.018863244,-0.04191629,-0.010144109,0.0099265,0.035998862,0.023305822,-0.020648742,-0.038089275,0.013675309,-0.018113172,0.012325856,0.0407027,-0.006763584,-0.014823294,-0.036848594,0.012085209,0.028847158,0.014256803,0.0011348777,-0.04157719,-0.017173445,0.03405502,-0.03315667,-0.0057683703,0.028174171,0.04050433,0.034230098,-0.0105575165,0.02968532,-0.00075561396,0.017110998,0.00030866772,-0.011520951,0.011586137,0.010818959,0.003796683,-0.026020706,-0.03258798,0.02508631,0.018112391,-0.028709317,0.022533175,0.034630347,-0.02512673,2.1858408e-05,-0.04257345,-0.008060474,-0.018798664,-0.01795904,0.03326573,-0.0075656753,0.033524398,0.011224017,0.03395804,-0.03408111,-0.0063831927,-0.035749044,-0.004287214,0.0046031103,0.023140438,0.023105413,-0.02003326,0.013902164,0.042632945,0.034656353,-0.008785526,0.018762344,-0.017806053,-0.020790618,0.017942598,0.017094899,0.026651243,-0.0058590914,0.01081289,0.01779796,-0.013209544,-0.0005224576,0.03442146,0.036743633,0.00049994065,-0.027202476,0.043569352,-0.042640075,-0.013465602,-0.003440231,-0.038270697,0.00977877,-0.040519036,0.01766287,-0.0058076303,0.031709827,-0.0028525514,0.008210522,0.03263632,-0.028638588,0.006056133,-0.028254857,0.027415344,-0.0152306855,-0.004624658,-0.0024368833,-0.0013520551,-0.02472234,-0.04247656,-0.023394188,-0.014446912,-0.031505447,-0.023272889,0.015100599,-0.028471665,-0.006184528,0.031230414,-0.03605077,-0.034458805,0.038274273,0.04112444,-0.037572525,0.02082146,0.022685941,-0.02870634,0.019910729,0.023258612,-0.042154476,0.030825546,0.014569233,0.04220637,0.037003163,-0.010111324,0.043222394,0.01259803,-0.002058847,-0.020831175,0.0057430244,-0.043172486,-0.026387561,-0.014684868,-0.02278123,0.026650194,-0.025334265,0.009486539,0.0068486943,-0.020848801,-0.038142722,-0.010652089,0.012156083,-0.010784288,0.015554068,-0.040227477,-0.0013260242,0.029782033,-0.03202061,0.03865716,0.035642687,0.03640666,0.028821938,-0.026254704,-0.027715081,0.0049880845,-0.029935425,-0.00834829,-0.027053302,0.041108035,0.0036964787,-0.002253144,0.0035597438,0.037148934,-0.043545328,0.0184307,-0.02214446,0.023876464,0.039245933,0.010588916,0.028429303,-0.0016805793,-0.030684466,0.031011915,-0.037672818,0.02244308,0.03895575,-0.031038493,-0.00031781357,0.02389438,-0.030323777,-0.03632748,-0.0314678,0.016164053,-0.023824211,-0.018408384,0.013211872,-0.012739317,0.012746118,0.031294655,0.017777914,-0.022971248,0.022062346,-0.04231495,-0.015083314,-0.027721351,-0.0061549097,0.00827538,-0.035530437,-0.004460949,-0.02080792,0.023565214,-0.020077989,0.021634499,0.036417022,0.008062508,0.004804098,-0.0026395307,-0.022160865,0.0030197531,-0.034233544,-0.020717947,-0.0422752,-0.03353555,-0.03660642,-0.010303081,0.032745708,-0.033007152,0.011468046,0.039160028,-0.023589922,0.036294043,-0.04121998,0.01659795,0.02824345,0.016927022,0.025202146,0.002483482,0.040113527,-0.024967955,0.038818415,-0.008485515,0.040431593,-0.037466466,0.03698952,-0.005204772,-0.0032443062,0.029978942,-0.01972552,-0.01758838,-0.014820596,0.009227662,-0.041170906,-0.012876157,0.011293217,0.043799933,0.032995112,0.04342398,-0.030410958,-0.019723518,0.014409112,-0.003550166,0.039926242,-0.013670356,-0.0073792017,0.043579902,0.039058734,0.037291907,0.028569883,-0.019872487,-0.035878915,-0.005115995,0.03812031,-0.02946444,0.03206032,-0.03984655,-0.011712809,0.031610455,0.022751864,0.036476143,0.0028776235,0.0138051,0.0034757294,0.009549053,0.021985529,0.014399887,0.034755796,0.044177745,0.016437218,0.026381418,-0.03867726,-0.013852062,0.012181561,-0.0147439055,-0.011954875,0.034169197,-0.016832244,-0.0032246343,-0.02402892,-0.025186198,-0.02752041,-0.0343516,-0.025397776,-0.020900548,0.008240157,0.028159263,-0.023831513,0.012322727,0.014174085,0.034182135,0.038467024,0.02970701,0.03937072,-0.02930505,0.009013762,-0.005303522,0.011736033,-0.017416595,0.026904488,-0.036980465,0.027369695,-0.026636766,-0.010808581,0.030607373,0.007791883,-0.0419752,0.027046006,0.0113107385,0.026246518,-0.026716454,-0.014672683,-0.0126746,0.026479715,-0.043776914,0.004225601,0.041397266,-0.014748457,-0.0047429637,-0.041769717,4.2626267e-05,-0.019019293,0.03621955,0.020162683,-0.019641612,0.031801436,0.03545416,0.031189822,0.026158847,-0.04056513,0.0046416693,-0.034493566,0.023796521,-0.035031244,0.028040167,0.04395599,0.043745667,0.0025108932,0.015728328,-0.021567075,0.003577714,0.03283389,0.036576927,0.0112552475,-0.005812398,-0.015157297,0.03254351,-0.00210543,0.04358753,0.043190382,-0.042102568,0.001774593,-0.0072119,0.018027607,-0.005143649,0.036724154,0.03987658,0.014060441,0.01678386,-0.04238367,0.024431659,-0.023437994,0.028387435,-0.039231006,-0.04374612,-0.0058870926,0.031321857,-0.01372962,-0.0062617203,-0.013245842,-0.034813017,0.012457433,0.02321028,0.02258441,0.029247083,0.026661702,-0.038934093,0.005697727,-0.03744149,-0.01934733,-0.025978964,-0.009061398,-0.035998132,0.042646404,0.018363481,-0.004577132,0.025525143,-0.021922925,-0.032668512,0.025466405,0.011767537,0.00050242204,-0.010565993,0.019717533,0.0055125863,0.025129804,-0.027002458,0.026619116,0.019948984,0.019940084,0.014417046,0.013570284,0.040913124
8,0.0016633938,-0.011238684,-0.037263412,0.01175405,0.028774107,-0.0019631633,-0.02615851,0.017863672,0.0029015786,-0.034706496,0.042149402,-0.042677365,-0.0053043496,-0.043004837,0.019531582,0.028777778,-0.025765654,-0.022627383,0.018415723,-0.024897143,-0.020053033,0.015187664,-0.03493742,0.0015764607,-0.0057930946,0.028234616,-0.0045752986,0.0029392317,-0.03862903,-0.017662542,0.027672434,-0.018946579,-0.023489939,-0.011823282,0.032028586,-0.00066753756,-0.018077627,0.03176481,-0.017876022,0.015117801,0.03440132,-0.0062390137,0.008952528,-0.026309121,0.0041514225,-0.026303163,-0.029541062,0.019322265,0.039098773,-0.015862787,-0.027415019,-0.035278685,-0.0012635151,0.043229062,-0.011989745,0.037557174,-0.04154874,0.010243923,0.022797387,-0.030214949,0.02125632,0.04357392,-0.021983385,-0.018224755,0.042485617,0.018315662,0.00732832,-0.009392425,-0.029063396,0.024402745,-0.032013554,0.035816424,-0.016589358,0.0048729605,0.022727882,-0.025651036,-0.024076028,0.010907678,-0.019371908,0.028522141,-0.031120263,-0.010023838,-0.019261383,0.0020887398,0.026977623,0.041672073,0.021694874,0.014088553,-0.029175676,-0.016505258,-0.023892837,-0.020927338,0.016582478,-0.0029703623,-0.017581278,-0.0020480838,0.0124663,0.00866152,0.024512986,0.011615239,0.04394819,0.023386901,-0.020926485,-0.026137631,0.017560415,-0.013616751,0.037849914,-0.023186171,-0.038683888,0.025797859,0.014272893,-0.013779185,0.017996324,-0.040065635,0.01034565,-0.021039369,0.015498155,-0.022050451,-0.004245831,0.0027591328,-0.041570332,0.023074605,0.0021862255,-0.03773608,0.018481793,-0.033092827,0.0062088575,0.03171644,-0.043640595,0.03464968,0.0021484145,0.042565636,0.019318698,0.037843924,-0.035378948,0.01574334,0.014463054,-0.020050788,0.03299637,0.01732051,0.013327634,-0.034657083,0.013461624,0.0075837984,0.04274625,0.025431229,-0.0045952233,-0.022170855,-0.0376339,-0.02921707,-0.020051884,-0.017046236,-0.038099788,-0.006970583,-0.015638478,-0.036520112,-0.0058536124,0.01811795,0.025836656,0.04036936,0.027211964,0.041303035,0.041959267,-0.023409272,0.026781503,-0.03478419,-0.043668725,0.0052280845,0.022664867,0.028056193,-0.019458141,-0.041177798,0.019857455,-0.033244975,0.010410492,-0.0117870355,0.010709635,0.0039398875,0.041264083,-0.040454034,0.038963374,-0.008330652,0.037942372,0.02912845,-0.01161583,0.03003369,-0.015251885,0.03176399,-0.02857848,-0.033674516,0.02230859,-0.02379836,-0.033247516,0.035066158,0.019701855,-0.03396915,0.036799878,0.027086688,0.014375347,0.04087878,-0.02653036,0.035884738,0.021514205,0.0034914922,-0.020410929,0.03584305,0.032736905,0.025750333,-0.04180498,-0.032894768,-0.026524961,-0.006205533,-0.017587986,-0.024331592,0.03529751,-0.0030225927,-0.027912745,-0.011309522,-0.021103818,0.040456012,-0.027562859,-0.019722654,-0.024991738,0.030453295,-0.0023411205,0.040127788,0.039628405,-0.038649864,-0.018940156,-0.018392747,-0.023466006,-0.03093439,-0.012468708,-0.03255011,0.023058562,-0.03072749,-0.0033056247,-0.011239785,-0.041202135,-0.0016025865,-0.020869011,0.002341605,0.038543426,-0.009179578,-0.010844168,0.014554181,0.021652948,-0.019392302,-0.03933306,-0.0070512784,-0.031330813,0.022395808,-0.017746646,0.0035799637,-0.0038332928,0.030896774,0.02886175,-0.029507188,0.017801622,0.029120343,-0.019908654,-0.021866307,-0.0014839589,-0.0076352227,0.030215513,-0.005392942,-0.031952895,0.02233881,0.006942297,0.042503238,0.008253707,0.015668422,-0.01428462,-0.037129845,-0.042729955,-0.033349074,-0.023095924,0.018932901,-0.024471134,-0.012321616,-0.0184136,0.040214103,0.018159691,-0.0006202225,0.00049091596,-0.014707422,-0.0060910624,-0.0182864,0.033233576,-0.016988546,0.04392953,0.0044442904,-0.0003838735,0.010832662,-0.033083778,-0.035104956,0.035987936,0.022039503,-0.0140543515,0.0064731445,0.024166087,-0.027078612,-0.0002771208,-0.011138179,2.5909774e-05,-0.0112421345,0.023199948,0.006611402,-0.02566508,-0.031994447,0.0017728386,-0.0041030534,-0.016375631,0.013240591,0.03423129,-0.017815173,0.023172405,-0.012059978,0.009024394,0.0057203337,-0.004765818,0.03922095,0.0378677,0.0128508955,0.0016139661,-0.007610562,0.033316698,0.005158221,0.008190665,0.0044132913,0.040727224,0.010394951,-0.03639729,0.015099483,-0.010665945,-0.027482385,0.042233206,0.0022841801,-0.041393377,-0.02051325,0.0224954,-0.024543185,0.024808709,-0.0044998555,0.036904443,-0.023017684,-0.03727848,-0.0010915349,-0.01300913,-0.013433459,0.00054369436,0.006764727,-0.0325683,0.026205583,-0.025993215,-0.04292491,0.021572769,0.043066513,-0.0037423081,-0.01124833,0.023101246,-0.012726251,0.018321509,-0.009735068,-0.019830462,0.0395327,-0.030037316,0.03175878,-0.01498096,-0.032746848,-0.014524937,-0.04060456,0.01069029,0.029343072,0.004618773,-0.015452952,0.017584082,-0.031554107,0.009208523,0.01571303,0.039545286,0.030286014,-0.010332616,-0.013486264,-0.0098386705,0.005284235,-0.000773284,-1.4335196e-05,-0.008099502,-0.013558768,-0.008357451,0.041626766,0.018472388,0.018792083,-0.023753405,-0.011186569,0.027477294,-0.017630037,0.0030034634,0.027362892,-0.00021769901,0.021949526,0.0040560756,0.025284922,-0.029899232,-0.042641208,-0.020101244,0.015959146,0.036979865,0.040232185,-0.0073927045,-0.0017205818,0.012337394,0.008771908,-0.024715481,0.03685835,-0.01874893,0.0009528191,-0.020129882,-0.043567833,0.0067569036,-0.00039669668,0.040072028,0.026679065,0.006039933,-0.0048968894,0.0057701143,-0.0037113144,0.028773626,0.011540718,0.030268792,0.0020516664,0.042418625,0.041922368,0.042773925,0.025994921,-0.0071742944,0.038223017,0.014864825,0.027759451,-0.028756557,0.023646569,0.010986477,0.016610367,-0.030434208,0.013637171,-0.017004015,-0.0016024073,-0.012844415,-0.022391398,0.008105945,-0.02027686,-0.039720528,-0.0049598515,0.040666588,-0.011446473,-0.008771317,-0.019296523,0.019905666,-0.02837291,-0.022891048,-0.04370092,-0.021330245,-0.040848535,0.034409508,0.00025967727,0.030550985,0.0029348694,-0.007580374,0.028961845,-0.0088305175,0.0038239572,-0.035330057,0.016584815,-0.035407603,0.025882937,-0.040861063,-0.037551492,0.029444277,0.005766616,-0.04284609,0.022342913,-0.029617116,-0.019114055,0.04160096,-0.03571906,-0.022107802,-0.013574673,-0.024269188,0.009486918,0.025812162,0.036007695,0.031296775,0.04056916,0.00052741513,0.018362464,0.024646102,-0.013596573,-0.023629004,0.0360917,-0.03219243,0.005019721,0.029501881,0.020944955,0.03856018,0.043023802,-0.038270555,0.0071920436,0.0047521363,-0.009782405,-0.008545094,-0.0050185146
9,0.034790963,0.0055488064,-0.017216533,-0.00020513398,0.038892552,0.04331468,0.032481495,-6.990055e-05,0.019059759,-0.010092284,0.01032221,0.04401251,0.034518253,0.019495567,0.0030727158,0.021367472,-0.015961412,0.020039309,0.021478897,-0.02785814,-0.0077064824,-0.024950814,-0.026249105,0.00827517,-0.020769339,0.023572052,0.02104775,0.025360275,-0.043332893,-0.03120511,-0.019656532,-0.028739655,-0.02032419,-0.013283474,0.02324757,-0.027096108,0.04054848,-0.021451075,0.04369086,0.04333502,0.03824541,-0.02118584,0.013769781,0.026183229,-0.042882543,-0.017629994,0.04094755,-0.010505634,0.03171416,0.029976472,0.028944248,0.027692791,-0.022941062,-0.0065590823,-0.033924915,-0.0030992527,0.04102861,-0.012741783,0.03350729,-0.036642153,0.014827398,0.020284835,-0.04082236,-0.0046443823,0.033678155,-0.033712067,-0.032792017,-0.024403851,-0.010871131,-0.025072996,0.008349196,0.001254638,0.011561597,-0.038318288,0.043293312,0.030273285,0.02328794,-0.011106353,0.010966172,0.020466046,0.038536653,-0.016824437,0.030237313,-0.0067248773,-0.00055128604,0.004022674,-0.043805536,0.025147349,-0.03937442,-0.02357368,-0.023158418,-0.010585481,-0.023727985,-0.014243395,0.014700246,-0.02322491,-0.04234439,-0.037055798,-0.013728271,-0.019212851,0.033689428,-0.027766544,-0.036128115,-0.011936704,0.021656478,-0.036880646,0.018002125,-0.013446994,0.003968558,0.008520359,-0.032550305,0.0008773604,0.009218753,-0.041446187,0.027515886,0.030863753,-0.032656867,0.030643314,0.016195863,0.014460779,0.042616833,-0.00670226,0.0025182215,0.033074193,0.017402302,-0.035889037,0.029927982,-0.026455976,0.019902896,-0.023857197,0.005415986,-0.02253917,-0.036314588,-0.037909597,0.026225565,0.015414519,-0.033776116,0.014001531,1.2053998e-05,0.030761298,-0.023960715,0.009241955,-0.019666493,0.04158814,-0.01273732,0.0024014958,-0.012605032,-0.036407165,-0.029175613,0.025640467,-0.011830178,0.031440247,0.017531892,0.022839256,-0.030543461,-0.037538733,0.0078087784,-0.003785477,0.034284096,0.033336796,0.0042814454,0.007355547,-0.008446481,-0.043669887,0.035468362,0.040610272,0.009028439,-0.040337067,0.02971024,0.035189703,-0.040291455,-0.00404115,0.025092747,0.04024428,-0.021470884,0.025404835,0.014666513,0.030881027,0.009544175,0.03188166,0.0083822915,0.0014570744,0.011721792,0.019780632,-0.017842298,0.010282888,-0.03847738,0.036871713,-0.016475525,-0.034156032,0.0047367313,0.009308294,-0.019147903,0.018793838,0.034868293,0.03207238,0.016701037,0.030588312,0.026040941,-0.004817495,0.028629469,-0.0077048233,0.034741957,-0.03294471,-0.030068846,0.021741783,0.0013126003,0.015744688,0.033969942,0.04299727,-0.02922682,0.027820034,0.022200372,-0.015794383,-0.023212139,0.021901483,0.004785901,-0.00935896,0.021600801,0.0083835665,-0.008059494,0.034180477,-0.04080832,0.02948818,-0.036490545,0.013980531,0.023186255,0.032057155,0.016064465,0.04393426,0.03787577,0.0061379084,-0.027496383,0.0027955582,0.02195943,0.030243298,0.0049971147,-0.037109755,0.014369088,0.042829625,-0.00627997,-0.008761018,0.034080986,-0.010024554,-0.02174287,-0.005435168,0.029599594,-0.01671467,0.003438714,0.015114581,-0.033049155,0.013384437,-0.016168242,0.02884092,0.014381252,-0.00892214,0.036681633,0.043226965,-0.038321126,-0.032067645,-0.007495553,-0.021040555,-0.032756813,0.015302024,0.008263796,-0.017793072,-0.0062134094,-0.009550423,0.043175932,0.019003028,0.037673246,-0.03245186,-0.019885605,-0.02519979,-0.008539726,0.03639001,0.01638906,0.037638642,-0.00035134138,-0.0005242383,0.010085103,-0.039451964,0.043089084,0.012672029,0.038937323,0.0024974062,0.035773203,-0.012719339,-0.030726263,-0.009484747,0.0032050253,-0.028528443,-0.002775391,0.030527567,0.022244258,0.041610524,0.0016500544,-0.030730283,0.043288093,0.014144841,0.019760724,-0.013514829,-0.037166163,0.013991679,0.016026745,-0.013655674,0.0054957224,-0.031709217,0.03940301,0.037961796,0.007403194,-0.0035788734,-0.003786183,0.043808445,-0.018510062,-0.0078066024,-0.011227188,-0.015612483,-0.0061248587,-0.015995672,0.024401555,0.038234916,0.02283473,0.036971662,-0.02911882,-0.0069903075,-0.04101673,0.038539425,-0.040692914,0.038985815,0.037080012,0.0074481224,-0.041266758,0.039229847,-0.00078130246,-0.040419713,0.04332748,-0.017783968,-0.0019315162,-0.0014165608,-0.03688248,0.025752457,0.03596978,0.0095093455,-0.0016657329,-0.009308453,-0.03526749,-0.026940355,0.010536833,0.0033534877,0.013476671,-0.036453616,-0.02575273,0.03916307,0.013105294,-0.025553718,-0.0017194544,-0.041509446,0.02456687,-0.01840597,0.0022167503,0.01206335,0.02570011,0.03722333,-0.0007126663,0.005724843,0.005022424,0.008269491,-0.03962895,-0.01250606,-0.01435037,0.040067375,0.019434722,-0.0003792268,0.012947812,-0.029161466,-0.018448744,0.02807046,-0.00042561995,-0.04330378,0.010241336,-0.011967808,-0.00602593,-0.022469075,-0.029750027,0.013880295,0.012555841,0.039994556,0.015234927,0.016470714,-0.032682862,0.012740986,0.016528651,-0.002474842,0.014193252,-0.01448997,0.009768364,-0.00908881,0.006475616,-0.026967587,0.010994964,-0.043392368,0.01414799,-0.018643621,0.011543964,0.009350989,-0.013997237,-0.023372008,0.03249954,0.008134062,0.03667798,0.033631578,-0.027432714,0.006628619,-0.011215851,0.02238641,-0.04387587,-0.01992616,-0.023658112,-0.033699125,0.0038179038,-0.013663476,-0.01674951,-0.026796281,0.03963323,-0.03135252,0.009513876,0.017812053,0.012361839,-0.02639146,-0.028716128,-0.042062312,0.02608409,0.021417616,-0.019217825,0.042588126,0.017696772,0.011146545,-0.029431423,0.041217268,-0.042752367,0.0149045745,-0.03858703,-0.016700272,-0.032487433,-0.004388251,0.03760239,0.035005055,-0.009482088,0.02197796,-0.019648133,-0.011869538,-0.008298003,0.019195955,0.0132195065,-0.016883828,0.038950726,-0.022037039,0.043535117,-0.007756927,0.027462265,0.035030738,-0.005578857,-0.03778562,-0.041999713,0.04368674,0.021411715,0.0022619213,-0.011425536,0.018527644,-0.0073061506,-0.0049386253,0.04287695,-0.03209462,-0.02402597,0.024624843,-0.03712187,0.039529562,-0.013377025,-0.037401203,-0.033194643,0.0021164198,0.009338182,-0.025352636,0.032489188,0.007995662,-0.036936637,0.030850476,-0.028700085,0.013872556,0.029423425,-0.03008403,-0.03978927,0.022698507,0.04397974,0.028707415,-0.015022622,0.0008273057,-0.036697876,-0.043151792,-0.017142234,0.0032781502,-0.036759764,0.0018892587,-0.03855083,-0.016446175,-0.038171556,0.04228539,-0.040506978,0.007627847,0.008244324,-0.01075115
10,-0.0038440085,0.00383049,-0.040006664,0.008007548,-0.010431477,0.012859688,0.02309112,-0.042650968,0.017266346,0.021248197,-0.04310474,0.043270037,-0.013474816,-0.03491267,0.0063455766,-0.026400475,0.01463493,-0.0374664,-0.0093552675,-0.016292581,0.03128581,0.041291915,0.008807285,0.036344107,0.034871344,0.026980067,0.002202942,-0.014540789,-0.0362143,0.008807396,0.0055620037,0.014075704,0.0020560022,0.017501226,-0.04087046,-0.035763323,0.037867524,-0.032532234,0.00737082,-0.012200601,-0.01683569,0.022620982,-0.027848609,0.03560314,0.025768256,-0.036698017,-0.02466156,0.023605332,-0.037795443,-0.014200817,-0.01537074,-0.009861835,0.019826515,0.0025244907,-0.02326043,-0.014030454,-0.002709073,-0.012952416,0.016246641,-0.03291084,0.0013284212,-0.026322456,-0.0014926359,-0.013260595,-0.04291476,-0.032335255,0.04205571,0.010542022,0.021346489,-0.031971328,0.03660548,0.0053189374,0.012964318,0.0044311564,0.02149424,-0.028043538,-0.022099432,-0.04118085,-0.029989189,0.010412853,-0.020084364,-0.021047935,0.028473904,-0.040851094,0.03747686,-0.013171422,0.018535035,-0.0045834645,-0.017389348,-0.026661016,0.008458872,0.042452276,-0.008912394,-0.0025128636,-0.038911507,-0.027089503,-0.027009465,-0.021648033,0.0059524784,0.0053227465,0.03806946,0.0103541585,0.0070726834,-0.012124858,0.0029577287,-0.038234,0.039601948,-0.018757207,-0.019628614,-0.007986933,-0.043765146,0.031918958,0.0030094483,0.0038997424,-0.032445118,-0.02968795,0.008481853,-0.009914862,0.008946227,-0.016069181,-0.0018146272,0.035191987,-0.016639996,-0.04182552,0.033966497,-0.018085044,-0.024165127,-0.032430507,-0.032940116,0.028617483,0.014999905,-0.016373144,0.010465183,-0.020446531,-0.03364636,0.026090654,0.033511445,0.019578585,0.03835787,-0.027680038,0.041919414,-0.041436657,0.03067297,-0.015085083,-0.033576287,-0.015525023,-0.019887706,-0.003979258,-0.042196013,0.042673063,0.018165296,0.043466188,0.042783678,-0.011805854,0.039609786,-0.03759023,0.013939527,-0.033366922,-0.033593677,-0.023258975,0.025696259,-0.031330645,-0.01474194,0.025802705,-0.016485296,-0.0031848054,0.009337376,-0.03525471,0.016232736,0.044014264,0.040870287,-0.03522603,-0.0053358646,0.012544835,0.018878564,-0.04118117,0.029297443,0.0226117,-0.042410206,0.038729645,-0.043121595,0.029631188,-0.043891538,0.019969735,-0.035513986,-0.009121073,0.018427214,-0.018841412,0.01593399,0.0219829,-0.01802962,0.0064308187,-0.021219485,-0.039633542,0.0017970204,-0.041144278,0.023516098,-0.042021915,-0.00938802,-0.019065116,0.036802307,0.0076139807,-0.041737653,0.020108677,-0.040119763,0.008945083,0.03758857,-0.042810008,-0.01356481,0.036651243,-0.037523687,0.021263896,0.0014414696,-0.01858802,-0.005024394,-0.031435236,-0.017974645,-0.019485794,-0.021662246,-0.016410971,-0.022175333,0.0022123512,0.031148555,0.031488493,0.027729148,-0.029416872,-0.02275522,0.039667986,0.0012079708,0.023261672,0.0025187326,-0.019059274,-0.04025776,-0.011145286,-0.029931486,0.00230244,-0.035571028,0.017463261,0.03284187,0.010006531,-0.007678381,-0.020266734,-0.026585858,-0.023039259,-0.00027414417,0.040640537,0.029653564,0.024763633,-0.031652693,-0.011810833,0.023087401,0.020178609,0.0009416712,-0.032115113,0.013120973,0.023504464,0.018162573,0.017243361,0.013401665,0.0156625,0.04265317,-0.014067923,-0.023047552,-0.034983624,0.038199887,-0.035170205,0.020477198,0.0027636215,-0.005137964,-0.024788257,-0.0013073584,-0.0011519681,-0.037745636,0.016206512,-0.0039780354,-0.00028485473,-0.008015519,0.0122662075,-0.011693832,-0.0023285553,0.0050506727,0.03416613,-0.04415977,-0.026571397,-0.027458908,-0.022405712,0.014950051,0.01284186,-0.00865966,-0.019356403,-0.0272692,-0.034979902,-0.02703765,-0.02138177,-0.033697095,0.027386459,0.0027785257,-0.02826385,0.002635079,-0.014814659,0.036453106,-0.008680175,-0.0015118496,0.023469456,0.005798953,0.019945985,0.0046837055,-0.0018776843,-0.018442491,0.03390682,-0.018582819,0.018988978,0.009173277,-0.04336159,-0.018840916,-0.037666637,0.022248182,0.03749596,-0.024055999,-0.03133951,0.036142513,-0.033878386,-0.028365318,0.030718947,0.043518174,-0.014941068,-0.031244865,-0.009248773,-0.033749677,-0.01764925,0.009768086,-0.022237893,0.008872786,-0.025355117,-0.02144704,-0.015173756,-0.012853877,-0.03572917,0.0050706295,0.013535217,0.000640827,0.019780084,-0.0022983202,0.026283475,0.025129326,-0.018814653,0.0032519612,-0.04336187,-0.035055563,-0.010570883,-0.028372305,-0.00065366074,-0.010726658,0.0040127067,-0.01949043,0.040028743,0.034369737,-0.0415036,0.036226284,-0.0021219463,0.02260386,0.015480658,0.030401275,-0.007421175,0.037215676,-0.032859173,0.042345896,-0.040666852,-0.03275664,0.010120954,0.007845051,-0.033077467,-0.035232484,-0.028772036,0.024364403,-0.0082051745,-0.03696461,-0.002800953,0.0076617966,0.032713808,-0.041957106,0.0016697317,-0.006636074,-0.017275097,-0.023042751,-0.03047273,0.009086012,0.024044555,-0.011290308,-0.01644257,0.012421003,-0.024364803,-0.017268855,-0.036768097,-0.025988473,-0.016581824,0.02339925,-0.008161726,-0.033853453,0.01843559,-0.030617679,-0.0029165356,0.04409746,0.034790214,-0.031708956,0.019923711,0.0022107128,-0.00091617764,0.0070358315,-0.015772067,-0.0308699,0.018383553,-0.023583943,-0.027254106,-0.018483253,0.0103989765,-0.024880253,-0.0142110055,0.010042077,0.021840096,0.00064385106,-0.0431442,-0.040872596,-0.023177179,0.000688453,-0.016793406,0.016723031,-0.019371623,0.024815384,0.02680156,0.020384207,0.031496756,0.041881237,-0.0065336465,0.002559757,-0.014873986,0.02075218,-0.043048766,0.040894516,0.013901885,0.013781529,-0.036847834,0.0038347626,-0.040277354,-0.040363938,-0.008656346,0.018208265,-0.011570437,0.033616252,-0.015641322,0.03006704,0.009659852,0.022671564,0.027483217,0.028198576,0.019002602,-0.023494054,-0.0028538157,0.01367937,-0.013100921,-0.039916463,-0.016072394,-0.0046744384,0.006682683,-0.034152128,0.0009187749,0.0024067746,-0.014091556,0.01759555,-0.004784589,0.030688062,-0.007925936,-0.019504655,-0.028616736,-0.043232117,-0.0302035,0.034404017,-0.027238406,0.04142067,0.026358739,0.022692742,-0.02542922,0.023814486,0.03599126,2.8728346e-05,0.033905815,-0.019240774,-0.033857323,0.008417031,0.042651802,0.011905857,0.01530637,-0.014500733,-0.024900448,-0.011196432,0.012401494,-0.015365571,0.018614767,0.013451298,0.015775844,-0.043404177,-0.02277376,-0.0173944,-0.016784865,0.03643076,0.041123427,0.015846573,0.03775192,0.0009661006,0.044170856,0.035062194,0.02497127
11,0.018122181,-0.014198572,-0.035458613,0.016981697,-0.023559129,-0.042497274,0.04163365,-0.034800943,0.040524967,-0.0331279,0.032119624,0.022636846,-0.040424492,0.015365697,0.008345165,0.006063451,-0.012865921,0.03821949,-0.0362276,-0.021561647,-0.0032899145,0.029870534,-0.02393891,0.008315536,0.015630892,0.029827487,0.0060258927,-0.014945625,0.025172552,-0.021550847,-0.00925088,0.01207759,-0.018602112,0.028184904,0.01721451,0.00585926,-0.026793841,0.0065131844,0.029057581,0.042905845,-0.03336926,0.027400324,0.042954773,-0.0029078112,-0.042997513,-0.04257967,0.0028293969,-0.023965077,0.0067137876,-0.039948273,0.013454127,-0.042888563,-0.0014834689,-0.00514132,-0.041404422,-0.011231498,0.034667384,0.015038411,-0.010490814,0.009470803,-0.0390907,-0.043666817,-0.039391782,0.016816339,-0.027120823,-0.043154273,-0.024947468,0.03555574,0.0008363568,-0.038995244,0.02011351,-0.033174016,0.03677467,0.04318,0.021271935,0.035436753,0.015291314,0.0124449,-0.042612743,0.020359667,0.013693052,0.042163078,-0.029597709,0.03233205,0.02597799,-0.0018890217,-0.017667174,-0.018234923,-0.035647158,0.044138473,0.023570118,-0.03342544,-0.029535495,0.02324198,0.033865873,0.040616933,-0.019395832,-0.041702226,-0.009567925,-0.01751114,0.027910981,-0.0400077,0.015295397,0.039956868,0.020629829,0.0028384533,-0.039668314,-0.03467448,0.036192242,-0.008618577,-0.012439584,-0.028960405,0.0056397803,0.008404302,-0.021795172,0.02503831,0.023830397,0.021158129,0.02852053,-0.007557425,-0.017630354,0.0066548767,-0.028137088,0.0006280144,-0.016565133,0.020593392,0.02425245,-0.03117459,0.01947138,0.034854006,0.0072049457,0.035536893,0.031667054,-0.036752667,0.03351427,0.011036052,0.04414467,0.00020642472,-0.026539428,0.0163695,0.019159872,-0.038938962,0.03736567,0.024218718,0.0026188155,0.019493608,-0.035749715,-0.04348044,-0.042501718,-0.037554376,-0.02652652,0.014726736,0.016002685,0.017096784,0.002736205,0.037626054,-0.03019907,-0.043288663,0.034551986,-0.007727293,-0.022556214,0.02206535,0.025835095,-0.011938353,0.013969325,-0.019708877,-0.039340287,-0.022573099,-0.02935301,-0.008842962,-0.018503794,-0.03681347,0.024789507,-0.028244236,0.020927073,-0.0385989,0.014372686,0.027891414,-0.022559691,-0.013687368,-0.043999042,-0.003292654,-0.019042747,-0.043160595,-0.003338531,0.03052957,0.01671043,-0.015411,0.015333903,-0.003965781,0.031524356,0.04311083,0.03300461,0.0069124675,0.038690023,-0.028837226,-0.023591224,-0.0049684336,0.028325042,0.022802072,-0.013450518,0.035606984,0.028521989,0.010323533,0.034293614,-0.0002962502,0.015192748,-0.010525543,-0.035336595,-0.008665629,0.005956277,0.029195527,-0.028800575,-0.0030171452,0.0060713906,0.039543986,0.0018331772,0.030216107,0.043166492,-0.03810753,-0.0374445,-0.021685649,0.010982536,-0.014483932,0.022398684,-0.033114087,0.033101153,-0.017653333,0.010101514,-0.019544384,-0.022802688,-0.0041549257,-0.013116763,0.005750511,-0.024160085,-0.019235058,0.023575071,0.0028051415,-0.041847285,0.006517246,0.022934923,-0.005583825,-0.04341004,0.017820936,-0.0067200093,-0.037655964,0.02368125,-0.022220172,0.038943887,0.005576839,0.006477133,-0.011638778,0.0022056869,0.038681682,-0.029345954,-0.025750212,-0.008942455,0.037964467,0.040359665,0.03102124,-0.03639594,-0.009241624,0.03959453,0.039313786,0.03171256,0.030302588,0.020186791,0.009940292,0.0036972533,-0.00069438515,0.029362665,-0.036000825,-0.002618062,-0.013089246,0.001746402,0.012849457,-0.031384826,-0.008094955,-0.04372303,0.043419525,-0.03675124,-0.012614815,0.02926663,-0.025105935,0.0025224783,-0.022598933,-0.03218463,-0.038234502,-0.005921964,-0.0066397404,-0.015502827,-0.040049262,0.014153602,-0.032639466,0.012605986,0.03920801,-0.006190645,0.042637862,0.028694363,-0.04047849,0.013363938,-0.01030894,-0.012737762,0.015981922,0.030630348,-0.0125077255,0.04202879,0.006189586,0.017638508,0.016996896,-0.01434587,-0.043498192,0.015216487,-0.023610063,0.0043096733,-0.022820637,-0.010195033,-0.039130434,-0.037359614,0.022209987,-0.010259607,-0.022249337,-0.04076393,0.022066014,-0.02193055,-0.0352657,0.02078013,0.025095187,0.017992394,-0.0036386638,0.02377283,0.033052154,0.040884923,0.029387085,0.030413339,0.015405937,-0.03416108,0.03477612,0.037936773,0.029030375,-0.005230308,-0.008198563,0.039945755,-0.03164734,-0.012715246,-0.03965992,-0.041882396,-0.0384182,-0.036880005,-0.00175706,0.011873805,0.034192488,-0.043862842,-0.025735192,-0.01818471,0.022939254,0.03272285,-0.039068837,-0.03154731,0.021398544,-0.014009328,0.0369269,-0.023633892,0.009788643,-0.03208993,0.038903516,-0.022565823,-0.019703077,-0.026834866,-0.03239508,0.016275063,-0.0058497507,-0.033303924,-0.028109793,0.021646857,0.020116827,0.013941329,-0.040353246,-0.0073686442,0.036894243,-0.039221276,-0.022259163,-0.02028708,-0.04195352,-0.006695659,-0.03802387,0.026427617,0.00794497,0.041457582,0.007615777,-0.012860457,-0.0403174,0.0070777466,0.04282312,0.0070670308,-0.015810763,-0.014098289,0.01653748,0.017434081,0.044000488,0.01573501,-0.032989256,0.03507232,-0.013916041,-0.0028876648,-0.0026723368,-0.01153477,0.025695536,0.03729967,0.04382105,0.019693462,-0.0009164674,-0.032903448,0.030617788,0.016629966,-0.026623247,-0.022268508,-0.026912758,-0.030824702,-0.025088549,-0.01742355,0.00539565,-0.02220248,-0.012406852,-0.03209893,-0.001290979,-0.01466166,0.016313244,-0.03702029,-0.0091233915,-0.030708626,0.016708191,0.032773778,0.0037048922,-0.0050284457,-0.015646001,-0.032663733,-0.04370517,-0.042924184,0.028503438,0.033862207,-0.03623703,-0.026843986,-0.015351415,-0.0153176235,-0.025649045,0.039213765,-0.016863849,0.015657712,0.010471663,-0.013897643,-0.02248596,0.0197414,-0.019607073,0.03868864,-0.02815154,-0.011418619,0.024916284,-0.030447952,0.043717988,-0.01793744,-0.003364309,-0.01290743,0.013035451,0.028542325,0.013534707,0.024549475,0.025792569,-0.006333275,-0.0034623109,-0.009442538,-0.041443665,0.042099465,0.0050343988,0.032783903,0.007084769,0.01497664,0.03389281,0.03502485,-0.007104062,0.038887974,-0.018947536,0.038896684,-0.039484754,0.041556053,0.020957468,0.024738235,0.041003,0.026852895,0.015589856,0.006294769,-0.043653246,-0.022244701,-0.03907198,0.0077653355,-0.005576513,-0.039771963,-0.042907882,-0.029105576,0.033054497,-0.029889248,-0.042092968,-0.042127248,-0.037807625,0.013514176,0.035010297,-0.014520426,-0.027869081,-0.01086345,0.03879731,-0.030891512,0.0070640277
12,-0.025269395,-0.005600926,-0.04122827,0.010743806,0.014892235,0.0072128586,-0.03724333,0.04271923,0.018160688,-0.0122607285,-0.04122388,0.016966272,0.026222741,0.02790851,-0.03635381,0.00405783,-0.017548826,0.040307205,0.014664089,0.03588357,0.0026256328,0.009558068,-0.00997138,0.03539773,-0.009958647,-0.022378195,-0.0114355255,-0.032650378,-0.039184287,0.0291996,0.034459215,-0.007518097,-0.013050535,0.015333039,0.0043907478,0.028116694,-0.03894325,-0.008572116,0.017949753,0.043560073,-0.010452966,-0.021215037,0.0022298475,0.016433647,0.040505048,-0.026605155,0.043494657,-0.018949118,0.022566846,0.010508458,-0.04200251,0.005553416,0.018246198,-0.010428616,0.0015401723,-0.0071106157,0.01735565,0.011514935,0.04265918,-0.0059733093,-0.01207288,0.0020347866,0.043363143,-0.0397462,-0.016516222,0.025575787,0.0058177505,0.04192803,0.013637792,0.0068936595,0.029706005,0.038587105,-0.01516531,0.034413137,-0.0023951684,-0.008586272,-0.014071205,-0.03274815,-0.008162696,0.012099027,-0.03952278,-0.0052264673,-0.019755892,-0.016936764,-0.0013800933,-0.01376682,-0.039170444,-0.007792236,0.038381644,-0.011136098,-0.0335928,0.03951527,-0.01561537,-0.0345127,0.026837306,0.03607127,0.027404703,0.015929654,-0.035152953,-0.029447043,-0.030007364,-0.028117727,0.009096254,-0.042956315,0.0013368032,-0.036814045,-0.03264676,0.0066134147,-0.025491161,0.04292645,0.025787437,0.0033606843,0.00021460121,-0.023179311,-0.007803852,-0.022780761,-0.026005574,-0.012552174,-0.041018993,-0.018085824,0.038278688,0.01195411,0.018099727,-0.040692996,0.0038387612,-0.039483942,-0.015871955,0.021387007,0.004908232,-0.028335268,0.006937113,0.014133497,0.017193738,0.022092465,0.00129414,-0.037780277,-0.029300284,-0.04118374,0.029063234,-0.010740555,-0.038998395,0.020964216,0.012642252,0.0029595306,0.020613696,-0.029937796,-0.016973441,0.025182746,0.03053734,-0.034156054,0.02064195,0.027091693,0.0111729875,-0.0024207463,-0.011522632,0.031305347,-0.028416838,-0.010619947,0.015046551,-0.03406853,0.02662234,0.039535623,-0.018569268,0.011716628,0.022062331,-0.002600824,0.022799015,0.041947205,-0.037313137,-0.01217181,-0.02970644,0.03758998,0.010043352,-0.043134622,0.012601649,-0.016495554,-0.032344688,0.0061981785,-0.0026673477,-0.014966319,-0.02820564,0.022838881,-0.035556745,-0.008993863,-0.0033049819,-0.013489177,0.022674909,-0.03092013,-0.024328204,0.018484686,0.015626017,0.026604619,-0.021346604,0.0025916519,-0.003379171,0.031220362,0.002307482,-0.033301078,-0.024394974,0.03635881,0.030317845,-0.04071899,-0.036072366,0.0053449157,-0.0340715,0.015074167,-0.028250743,0.014150082,-0.013499588,-0.024217747,0.031002937,0.010636673,-0.0058142263,0.037999623,-0.013543442,-0.043644205,0.031318262,0.036080606,0.0351621,0.015088113,0.018498683,-0.016114056,-0.013396802,-0.042401683,0.0037088015,-0.005944207,0.02149505,0.035393,0.0004501336,0.01951092,0.007763971,0.011441136,-0.02419268,-0.0076078433,0.00475359,0.03792552,-0.02140093,0.014462322,0.0028432263,-0.007851289,0.039420806,-0.020898793,-0.0055383276,-0.0064244177,0.01288268,0.023484562,0.031893257,-0.040848088,-0.043873265,-0.0031791262,0.029287197,0.005665585,-0.011222852,-0.00018299108,-0.0109857395,0.039532278,0.019932335,0.007318842,0.014139988,0.03598077,-0.03098634,0.025129922,-0.034272715,0.027253816,-0.040355034,-0.032634266,-0.016045963,0.03678914,0.03008812,-0.015848247,-0.04362068,-0.028141845,0.008220421,0.037710696,-0.0007649811,0.04164671,0.0016715967,0.03500989,0.007324432,0.0009853195,-0.037222974,-0.013238425,-0.044049494,0.0071351556,0.017253328,-0.004239699,-0.0010865721,0.041804526,0.035117976,-0.031896546,0.0016906313,-0.040267147,0.029395182,-0.018395156,-0.029166367,-0.04023184,0.04000302,0.0057461644,-0.02758314,0.0051466515,0.036761735,-0.027299289,-0.0076805097,0.024302857,-1.3160353e-05,0.03417263,-0.019355308,0.0038691754,0.040485,0.011341079,-0.009901944,-0.020166798,0.020348324,-0.042020172,-0.021906873,0.0428076,0.01275617,0.025597334,0.03758471,-0.013080564,0.0294144,-0.03232794,-0.036521886,0.04100911,-0.022631735,-0.028228894,-0.011390692,-0.018474992,0.025962995,0.012064978,-0.042093333,-0.03246669,0.005548048,0.037542406,-0.030008888,0.019040454,0.0061305803,0.007089084,0.031135837,0.03210592,0.028178819,0.018800655,-0.015885632,-0.024383426,0.035153348,-0.00089581544,-0.041411027,0.008444105,-0.012701506,0.01306468,-0.043310855,0.02568758,-0.016714992,0.019375248,0.0325166,-0.02914486,-0.004778683,0.009227073,-0.016991153,0.0047179232,-0.023872327,0.026990863,-0.041539095,-0.035961356,0.02236316,0.025516128,-0.040897585,0.023404224,-0.032019936,0.015908148,0.012443614,0.03262531,-0.03788633,0.039785806,-0.023874683,-0.03909168,0.00069043384,0.037983175,-0.020487946,0.009357391,-0.02760324,-0.0053387783,0.0441608,-0.042316843,-0.042504728,-0.012742994,-0.001589168,0.0155284,0.008121587,-0.020140035,-0.014535431,-0.018476624,0.03256404,0.019976826,0.0019704967,-0.034785744,0.03436821,0.025203098,-0.01398092,0.03993328,-0.0357616,-0.04102248,0.0018783954,-0.0060860366,-0.03936566,0.03426029,0.009630044,-0.029493395,0.02803992,-0.036822695,0.03491814,-0.017468551,0.013658123,0.008284695,0.006598616,0.02032037,0.041551244,0.0270875,0.020045558,-0.0107334955,-0.00070469,-0.029276438,-0.032800052,0.020982819,0.0163554,-0.012582104,0.013950702,0.007559817,-0.0025296486,0.009511021,-0.026203154,-0.016373634,0.04138587,-0.035904914,-0.016090713,-0.02859828,0.03856314,0.040303946,0.019985635,0.025066175,-0.014603667,0.013184488,0.0058014765,-0.012345096,-0.026892465,-0.014871642,-0.031726472,0.0045639346,-0.030026952,-0.042772934,0.026219307,0.04246278,0.034291122,0.03399548,-0.031937394,-0.04193856,0.01382925,-0.03948229,-0.026918681,-0.027782148,0.01737586,0.035202812,0.040816274,-0.037818313,-0.018642789,-0.029622464,0.03894503,0.012119658,0.0153842,-0.016398722,-0.005935235,0.024356868,-0.012600216,0.039933313,0.028957028,0.019827532,0.0280593,0.021275908,-0.031820133,0.019914592,0.031865366,-0.023498474,-0.022326477,-0.03845884,0.04274518,-0.033226177,-0.035093706,-0.015563261,0.0017586404,-0.022634711,-0.02525317,-0.038917083,-0.014827103,0.013599539,0.04214837,-0.038188595,-0.006818896,-0.041153777,0.0021146706,0.017516214,-0.016913278,-0.023731584,0.01296779,0.024645343,-0.01206629,-0.039284106,0.030499503,0.011986658,-0.0202371,0.016792811,-0.036918726,-0.0014891587
13,0.019220775,-0.012139129,-0.01310453,-0.006334023,0.03305728,-0.010524516,-0.021764306,0.04166813,0.03357806,-0.0047375057,0.0032702477,-0.02199546,-0.02751262,0.0362856,-0.019205002,-0.019462481,-0.026321756,-0.008991156,-0.037277903,-0.03748077,0.016841412,-0.01954989,0.030331353,-0.0062019033,-0.012819976,0.039780915,-0.036766615,0.012218856,0.025141474,-0.030505667,0.017465143,0.042501222,-0.041721143,0.0078049693,-0.009134334,0.016196586,0.025970476,-0.0398647,-0.014417662,-0.03036388,0.020732766,0.0045823054,0.03650551,-0.03603312,0.025899116,-0.015898438,0.01681048,-0.01873294,-0.008899428,0.0077771368,0.0059641055,0.014230767,-0.040803347,0.004207841,-0.038913425,0.03674474,0.027425755,0.043930087,-0.008366329,0.020649785,-0.009065239,-0.0013578134,-0.01861796,-0.01815052,-0.016030554,0.0008228856,-0.01540816,-0.028603442,-0.015919581,-5.047612e-05,-0.032294653,0.014195548,0.017288974,-0.002780338,-0.029984163,-0.00028512342,-0.024509715,0.031761628,-0.015269271,-0.037169885,-0.038315624,-0.04073829,-0.015461134,0.001798211,0.025605237,0.018034225,-0.00826555,0.0005153084,0.021615874,-0.030600598,-0.009038312,0.043610625,-0.04301966,0.024019288,0.04266138,-0.028726706,-0.030600797,0.012099438,0.034803692,0.005820248,0.0005219571,0.02704658,-0.00062760344,-0.0021439628,0.016810443,0.035798088,-0.008969487,-0.021104133,-0.016858434,-0.04196217,-0.005569643,-0.0012235809,0.031465508,-0.017756246,0.036564786,-0.036254212,-0.030467313,0.012606976,0.03859635,-0.032488696,0.021422025,-0.04166539,0.015708562,0.035900105,0.044186093,0.02086662,-0.04092319,0.035200674,-0.01938174,0.019661168,-0.03183511,-0.006082159,-0.009321139,-0.018488063,0.01967967,0.033449154,-0.031830348,-0.023916198,-0.042567078,0.018758245,-0.019028248,0.019533973,0.011471824,-0.02968558,0.029521802,-0.013097523,0.014407984,0.02697029,-0.027560635,-0.035177443,0.0010377397,-0.0107349865,0.022640228,-0.01929401,-0.012702833,-0.020427834,-0.04335778,-0.00888169,0.017787244,-0.032342296,0.029712537,-0.031905565,-0.014896598,-0.016833382,-0.0048933597,-0.02555413,-0.03952768,0.01350188,0.04199152,0.02244334,0.010545289,0.024244532,-0.0034896168,0.01819895,0.03587459,0.030387914,-0.008401637,-0.0066376226,-0.017962301,0.015831959,0.008444843,0.013953199,0.013847721,-0.013935207,0.009796424,0.03871041,0.011398399,0.022188835,-0.026403625,-0.00824072,0.013630717,-0.024945881,0.03367986,-0.028426422,-0.023552349,-0.039175577,-0.009647119,-0.030659456,0.038525175,0.03909979,0.028469631,-0.0054408736,-0.008123615,0.035742696,-0.0114472415,0.0015040155,-0.00435172,0.03529299,-0.039516605,-0.026942726,0.009340848,0.037691448,-0.03413438,-0.0029391788,0.011968819,0.027674088,-0.03778876,-0.04290027,-0.023677547,-0.0354574,0.040477306,0.01476668,-0.025833152,0.02848252,-0.00846756,-0.03329196,0.03966586,0.012628365,-0.028871233,0.008698498,0.020306814,-0.031210363,0.0032543477,0.03922416,-0.00024681722,-0.010200069,0.0075189346,-0.04388644,0.021317638,-0.038676765,0.03602358,0.041570634,-0.03795481,0.000142214,0.021168329,0.028776292,-0.00060620863,-0.03529182,-0.012001863,-0.005509573,0.03020646,0.0038577695,0.0058275657,0.0063811857,-0.04347357,0.018066825,0.006851307,-0.00383049,-0.0044204774,-0.0027035887,0.03556721,-0.020773254,-0.005078616,-0.022202369,-0.01946029,-0.023666313,0.022825947,-0.012157269,-0.03745407,0.033861663,0.015642002,0.016775357,0.0070878775,-0.009006486,-0.02023163,-0.04249543,0.008840928,0.021298641,-0.041009262,0.032243934,0.007641661,0.026134944,-0.010222891,0.012644939,0.042764034,0.029899823,0.0022580859,-0.015093761,-0.022493046,-0.03484886,-0.01085324,0.012116565,-0.027285542,-0.040591016,0.012165982,0.033164274,-0.042472947,-0.03330938,0.009272738,-0.024215767,-0.04132178,-0.0052408236,0.014660254,-0.005583572,-0.023628376,0.008596303,0.015916709,0.039718788,0.017806284,0.0064478354,0.022444846,-0.0037394897,-0.01206925,-0.01582728,0.0055974913,-0.034210645,-0.018148554,0.036610916,0.0132943485,-0.021319445,0.006310521,0.018563522,-0.007490111,-0.03142024,-0.039082035,0.007894463,-0.020394465,0.038166378,-0.032853425,-0.010287098,-0.011737133,0.00024341384,0.005978667,0.040479254,0.042573642,-0.009059064,0.0093087,0.008741678,-0.021116635,0.0089562265,-0.014539109,-0.012265239,-0.022533918,0.009190205,-0.015100357,-0.030677862,-0.009255011,0.0376108,-0.020575069,0.018235235,0.033294078,-0.010517019,0.032284692,-0.018542148,0.017425083,0.042070698,0.036399223,0.0069943117,-0.04382081,0.040936213,-0.02496628,0.03277782,-0.013508981,-0.03086821,0.0015058173,0.017021315,0.014568532,0.013137778,-0.018371673,0.03776633,0.008251099,0.044140838,-0.03220599,-0.005213581,-0.008286539,0.042512484,0.042773396,0.039143454,-0.018751923,0.022261554,0.037060097,0.027622517,-0.025995007,0.009450599,-0.024428787,-0.01490863,0.019473087,-0.007002409,-0.0014674426,0.011104208,-0.021969682,0.03660814,-0.0052756527,-0.0149533115,0.015601967,-0.0061648246,-0.010780284,-0.02622665,-0.04377736,-0.030806912,-0.0400391,0.042552944,-0.010830797,0.042448953,0.012490608,-0.014552548,0.026421111,-0.041171096,-0.03396382,0.036569487,0.0113645075,-0.020635603,-0.021234062,0.014157453,-0.014291248,-0.028865775,-0.0032523088,0.0052888286,-0.020677945,-0.03304586,-0.04312255,0.027425623,-0.032582346,-0.03617736,-0.038998313,0.025514627,0.0021481405,-0.03601629,-0.024100758,0.024854138,0.01799151,0.029768493,0.0018816512,-0.007120346,-6.941586e-05,-0.010579649,-0.03746629,0.022871481,-0.02164405,0.041273832,-0.03342275,-0.008497357,0.008965119,-0.0041502104,0.04294185,-0.015793271,-0.018325297,-0.043468256,-0.0099660335,0.005383111,-0.027807426,-0.022215387,-0.020822503,-0.01801039,0.024343072,-0.026622921,0.016797269,0.0427177,0.018695509,0.010870178,0.020406172,-0.008291423,-0.0008830766,0.043812342,0.0027527635,-0.01795696,0.02531904,0.018584937,-0.038264863,0.007390808,0.00047521625,-0.020010348,-0.015425841,0.004499745,-0.031101909,-0.043047763,-0.016995,-0.004585461,0.013833033,-0.005478342,-0.011681526,0.010879619,-0.034229666,0.006588759,0.0060122055,-0.016610473,-0.023433,0.0016558653,0.02174252,0.0011928717,-0.009774075,-0.032342732,-0.04270761,-0.014079618,-0.01825624,-0.0045916936,0.01783455,0.032840274,-0.039228853,-0.029071668,-0.021115275,0.041168492,-0.0063212896,0.040491052,0.014859087,0.04366662,0.036782682,-0.0050613256,0.03573687,-0.022788374,0.041775566,0.020385018
14,0.035832323,0.005874338,-0.00046519583,-0.019355793,-0.005788843,-0.036294047,-0.010965698,0.028804589,-0.005959227,0.03343203,-0.015443522,-0.03848092,0.011491538,0.037741948,-0.041941583,-0.021031972,-0.037139855,0.02361733,-0.011189124,-0.008313133,0.027473617,-0.010866401,0.0034665994,0.013511299,0.0011478272,-0.04369319,-0.04136991,-0.03726778,-0.03260164,-0.033576023,0.02936346,-0.037548404,0.019354517,-0.03920761,0.011515815,-0.007889084,-0.02256635,-0.0064468766,0.030720595,0.007838707,0.029356727,-0.033961367,0.039470147,-0.04369908,0.031457376,0.018133054,0.008720467,0.03216712,-0.017482324,0.030731222,0.025010113,-0.013723383,0.026306255,0.005342429,0.0010561316,0.03624308,0.042955156,0.020922339,0.034030493,-0.03693706,0.0046252212,-0.038977325,0.021012701,-0.040661752,-0.012009281,0.033088088,0.040964823,-0.022808595,-0.012961589,-0.03911899,-0.019482981,-0.031701237,-0.042331565,0.016389254,-0.039540432,0.00088842394,-0.023702934,-0.021332089,-0.021940352,-0.00014997956,0.020950818,-0.033594467,-0.021374231,0.021319056,-0.0036763642,-0.026513603,0.020726988,-0.020305002,0.012734918,-0.018528644,-0.02177049,0.017625095,0.026575252,-0.010440369,0.007222674,0.016339105,-0.026816959,-0.032054927,0.024214445,0.02447126,0.0069172247,-0.01138026,0.04208097,0.03319625,0.039138906,-0.019281108,-0.011260984,0.042259216,-0.015663696,-0.0044424464,0.04110448,0.0014446464,-0.0053218086,0.03186703,-0.030412622,-0.0041047763,0.011813488,-0.028279366,0.029503152,-0.017594766,0.022089886,0.00020857422,-0.0018055552,0.00039500554,0.009095211,-0.028776346,-0.0074868714,0.03634902,0.03220304,-0.04003867,-0.024571039,0.030806184,0.04054611,-0.02199997,-0.0045907926,0.042310398,-0.040546183,-0.04125217,-0.01724813,-0.0039923443,0.0026978988,-0.025919152,-0.02511498,-0.022280825,0.016606832,-0.034577236,0.0038170188,-0.016256565,0.02130796,0.00079832977,0.025198467,0.028238678,-0.022343561,-0.039505426,-0.039355673,-0.0409474,-0.0006063245,-0.02092603,0.00064684876,-0.0029419817,-0.0031827718,-0.020773448,-0.016747229,-0.029333143,-0.043994978,-0.0122063225,-0.029152159,-0.0049326355,-0.013615034,-0.028304616,-0.027424954,0.018765321,-0.014535815,0.022082835,-0.010371264,0.010714577,-0.020472405,-0.031658452,0.0045806407,0.020559976,-0.0036262253,0.019077597,-0.04267612,-0.004432505,-0.039991684,0.0018804027,-0.038932048,0.020128366,-0.015164178,0.021276167,0.027012141,-0.029701574,0.026829382,-0.00864915,-0.012054204,-0.034026224,0.011371979,0.0013201077,-0.0038680376,0.012991686,-0.038423695,0.040680613,0.040490154,0.0011070713,0.006053926,0.034329835,0.0018580595,0.0027600075,-0.022282496,0.014051822,-0.023301411,0.014223813,-0.00943493,-0.013290634,0.03437017,0.016661845,-0.0022213918,-0.04269231,-0.029749911,-0.028013261,0.008949288,-0.03730804,-0.038181737,0.043640304,0.007544238,-0.03757357,0.014259975,-0.025605874,0.019746725,0.013771467,0.019286346,-0.012787048,0.022533217,0.008112536,0.039626535,0.00959335,-0.02287487,-0.015732411,0.03042436,0.027576018,0.022195347,0.003922423,0.033735164,-0.0010268026,-0.007042501,0.037074026,-0.036819488,-0.018478464,-0.013198375,0.040594954,-0.04001552,0.034336474,0.008449158,-0.018904964,0.023060357,0.03578397,0.0062883096,0.027085898,-0.022080533,-0.015723657,0.03871498,0.039087,-0.0026597243,-0.034131724,0.037017804,0.028479373,-0.027021388,-0.04242997,-0.029438592,0.031449247,-0.01571813,0.015333829,0.007510431,0.032033708,-0.037914556,-0.03566891,-0.038886663,-0.00052703056,0.026397957,-0.004500846,0.0047617983,-0.024105636,-0.03285476,0.0026094695,0.03281726,-0.018803257,0.034966663,-0.032700375,0.022392746,0.02026333,-0.027904844,-0.004972459,0.02733573,-0.037922665,-0.014312063,0.028443132,0.043578375,0.02818573,0.016183399,-0.023784688,0.035682917,0.035038557,0.031340376,-0.010809055,-0.033704292,-0.02635837,-0.029975718,0.0039142407,0.034057803,-0.011100695,-0.030140996,0.020584341,0.02923718,-0.015498671,0.005357876,-0.028138211,-0.03576106,0.0245375,0.038397152,0.017458495,0.033632167,0.029088743,-0.031472683,-0.037911605,0.037421323,-0.041079152,-0.03854623,0.010538329,0.0022115083,0.013586811,0.009899299,0.009495796,-0.014572541,-0.014222665,0.039198596,0.008857002,0.0028298448,-0.037126325,-0.039160553,0.038670667,0.0341789,0.0054616733,-0.040945195,0.007052532,-0.004411911,0.032867793,-0.029842561,-0.017010868,0.026676642,0.009870354,-0.00038212966,0.025122883,0.024895547,-0.012888764,-0.0036650794,-0.038599942,0.030246053,-0.032574754,0.027428316,-0.04180713,-0.04270429,0.012684484,-0.019357894,-0.004126988,-0.019483887,0.020229096,0.033164296,0.022506101,0.005159712,0.02272301,0.032621864,0.01831172,0.020053718,-0.007520441,-0.02756103,0.00961103,-0.0006244372,-0.010931675,-0.0076440633,0.005306083,-0.0057545304,-0.027200107,-0.017650183,0.0038745755,0.037263226,-0.0012467459,0.019083008,-0.03400114,0.032695398,-0.0379734,-0.00763369,0.021007959,-0.014353499,-0.008994712,-0.025445463,-0.04045408,0.030389827,0.024587829,-0.018609503,-0.0104577765,0.036314107,0.0106417,0.04348037,0.009233274,0.028882654,-0.0016409296,0.011593407,0.011756437,0.0050124875,-0.012549029,0.018311352,0.044144783,0.041476164,0.01706735,-0.0012153834,-0.02135671,0.035355285,-0.042163,0.027589373,-0.027219573,-0.037515875,0.015768575,-0.0029193698,-0.016382027,0.0035874133,0.036080226,-0.04062613,0.037600078,0.0046519847,0.03994397,-0.014282012,0.036639847,-0.026384216,0.01447062,-0.03148535,-0.016932048,-0.0042425334,-0.0036984175,0.01584664,0.023758283,0.043543853,0.021379184,-0.023465104,0.036021493,-0.03954031,-0.011951007,-0.038980577,-0.03896511,-0.033206727,-0.009410448,-0.018458165,-0.014872152,0.032988355,0.032389678,0.0015144311,-0.009696114,-0.02875631,-0.016823268,0.02603945,0.01749416,0.026426338,-0.03138943,-0.00437037,0.033446014,-0.03370897,-0.009118681,-0.022698417,-0.020760251,0.036524553,0.03720435,-0.0006349159,-0.037153315,-0.021635588,-0.035927013,0.0092565855,0.04027702,0.0352759,0.041019324,-0.017096095,0.011322998,-0.029861795,-0.018809248,-0.013913064,0.031300977,0.032555737,-0.03210962,-0.036351833,-0.034697235,-0.02002048,0.025182314,0.010170171,0.009583987,0.01099409,-0.004675887,-0.0047611925,0.02144134,-0.037350617,-0.014472774,-0.040395442,-0.0028626034,-0.010285696,-0.0017163514,-0.02944237,0.033437785,-0.03756018,0.027379345,-0.0052717645,0.034055397,0.015331406,0.014302865,0.030411579,0.014518393
